SVM-light Version V6.02
0 # kernel type
3 # kernel parameter -d 
1 # kernel parameter -g 
1 # kernel parameter -s 
1 # kernel parameter -r 
empty# kernel parameter -u 
14974 # highest feature index 
1800 # number of training documents 
1317 # number of support vectors plus 1 
0.061218467 # threshold b, each following line is a SV (starting with alpha*y)
-0.0023269208212595591730997846013906 3:1 6:1 9:1 11:1 13:1 15:1 17:1 21:1 22:1 25:1 27:1 31:1 32:1 33:1 35:1 36:1 37:1 38:1 41:1 42:1 45:1 48:1 51:1 54:1 57:1 59:1 61:1 65:1 68:1 76:1 77:1 80:1 81:1 82:1 83:1 85:1 88:1 90:1 92:1 99:1 100:1 104:1 106:1 107:1 109:1 110:1 111:1 115:1 117:1 118:1 119:1 123:1 130:1 132:1 140:1 141:1 157:1 163:1 169:1 173:1 182:1 183:1 188:1 199:1 200:1 202:1 208:1 216:1 221:1 226:1 229:1 231:1 232:1 234:1 235:1 237:1 241:1 255:1 258:1 261:1 262:1 263:1 268:1 274:1 275:1 280:1 283:1 287:1 289:1 290:1 296:1 298:1 299:1 300:1 301:1 302:1 316:1 323:1 326:1 327:1 328:1 329:1 341:1 343:1 358:1 362:1 386:1 390:1 393:1 395:1 397:1 400:1 401:1 402:1 403:1 406:1 407:1 429:1 446:1 454:1 459:1 468:1 474:1 477:1 480:1 498:1 501:1 507:1 512:1 519:1 527:1 528:1 536:1 537:1 538:1 552:1 555:1 558:1 563:1 566:1 567:1 569:1 572:1 574:1 575:1 585:1 626:1 634:1 638:1 642:1 654:1 657:1 658:1 659:1 660:1 695:1 708:1 717:1 721:1 731:1 733:1 735:1 752:1 758:1 760:1 763:1 775:1 784:1 797:1 820:1 822:1 841:1 862:1 866:1 906:1 908:1 912:1 922:1 933:1 936:1 968:1 990:1 996:1 1004:1 1026:1 1028:1 1033:1 1049:1 1062:1 1063:1 1075:1 1086:1 1095:1 1096:1 1103:1 1110:1 1130:1 1134:1 1139:1 1189:1 1197:1 1243:1 1261:1 1272:1 1299:1 1372:1 1374:1 1378:1 1387:1 1399:1 1431:1 1432:1 1446:1 1448:1 1482:1 1486:1 1500:1 1572:1 1629:1 1642:1 1700:1 1706:1 1715:1 2000:1 2002:1 2006:1 2021:1 2099:1 2123:1 2166:1 2170:1 2252:1 2288:1 2354:1 2374:1 2379:1 2391:1 2410:1 2428:1 2432:1 2447:1 2448:1 2459:1 2461:1 2464:1 2539:1 2597:1 2650:1 2662:1 2709:1 2712:1 2764:1 2767:1 2801:1 2815:1 2899:1 2923:1 2961:1 2964:1 2965:1 2992:1 3051:1 3098:1 3105:1 3281:1 3324:1 3349:1 3494:1 3537:1 3572:1 3595:1 3615:1 3782:1 3793:1 3808:1 3958:1 4001:1 4101:1 4152:1 4209:1 4240:1 4245:1 4383:1 4411:1 4412:1 4413:1 4564:1 4707:1 4736:1 4982:1 5126:1 5263:1 5265:1 5391:1 5552:1 5680:1 5829:1 6196:1 6224:1 6328:1 6611:1 6736:1 6827:1 7034:1 7267:1 7294:1 7359:1 7460:1 7557:1 8094:1 8396:1 8461:1 8667:1 8700:1 9324:1 10775:1 10864:1 11885:1 12722:1 14139:1 #
-0.003154841018321794410966818489328 3:1 9:1 11:1 13:1 14:1 17:1 21:1 27:1 32:1 33:1 35:1 37:1 38:1 42:1 45:1 46:1 51:1 57:1 61:1 65:1 68:1 80:1 81:1 85:1 88:1 89:1 90:1 92:1 99:1 100:1 106:1 107:1 109:1 115:1 117:1 120:1 121:1 128:1 137:1 159:1 163:1 169:1 173:1 182:1 200:1 216:1 221:1 231:1 234:1 235:1 237:1 255:1 262:1 275:1 282:1 287:1 290:1 295:1 300:1 311:1 317:1 329:1 339:1 359:1 360:1 386:1 390:1 402:1 403:1 429:1 488:1 574:1 590:1 596:1 604:1 617:1 620:1 658:1 659:1 687:1 690:1 702:1 721:1 733:1 746:1 751:1 761:1 763:1 779:1 783:1 866:1 887:1 921:1 922:1 936:1 953:1 962:1 996:1 1007:1 1033:1 1103:1 1113:1 1125:1 1189:1 1199:1 1228:1 1260:1 1292:1 1336:1 1378:1 1393:1 1432:1 1482:1 1605:1 1696:1 1700:1 1728:1 1826:1 2084:1 2166:1 2270:1 2354:1 2710:1 2766:1 2983:1 3055:1 3520:1 3567:1 3915:1 3942:1 4569:1 4619:1 4872:1 5185:1 5204:1 5405:1 5494:1 5684:1 5966:1 7043:1 7372:1 7415:1 7623:1 7637:1 7642:1 7654:1 9117:1 9144:1 11004:1 11189:1 14140:1 #
-0.00091175808127164298735878311674696 3:1 6:1 9:1 11:1 13:1 17:1 21:1 22:1 23:1 24:1 27:1 31:1 33:1 35:1 36:1 37:1 38:1 42:1 45:1 48:1 51:1 54:1 57:1 61:1 63:1 65:1 68:1 76:1 77:1 80:1 82:1 89:1 90:1 99:1 100:1 102:1 106:1 107:1 109:1 110:1 111:1 114:1 115:1 117:1 130:1 132:1 134:1 150:1 157:1 158:1 159:1 163:1 169:1 176:1 180:1 183:1 200:1 208:1 209:1 221:1 222:1 226:1 231:1 232:1 233:1 234:1 235:1 241:1 260:1 265:1 269:1 271:1 275:1 282:1 283:1 287:1 297:1 298:1 300:1 301:1 303:1 304:1 305:1 308:1 311:1 317:1 323:1 326:1 327:1 343:1 358:1 362:1 393:1 396:1 402:1 403:1 407:1 408:1 412:1 429:1 432:1 444:1 446:1 465:1 467:1 470:1 474:1 477:1 495:1 498:1 501:1 505:1 508:1 536:1 556:1 558:1 563:1 567:1 568:1 587:1 593:1 607:1 610:1 612:1 613:1 618:1 626:1 627:1 654:1 658:1 664:1 680:1 691:1 707:1 711:1 735:1 752:1 763:1 787:1 796:1 832:1 853:1 905:1 906:1 908:1 930:1 937:1 938:1 948:1 952:1 958:1 966:1 972:1 973:1 974:1 1035:1 1039:1 1061:1 1062:1 1070:1 1103:1 1106:1 1133:1 1140:1 1163:1 1184:1 1187:1 1271:1 1288:1 1302:1 1342:1 1372:1 1406:1 1432:1 1486:1 1516:1 1555:1 1558:1 1561:1 1614:1 1645:1 1661:1 1684:1 1720:1 1751:1 1766:1 1775:1 1844:1 1853:1 1865:1 1886:1 1934:1 2032:1 2062:1 2112:1 2222:1 2234:1 2274:1 2309:1 2363:1 2398:1 2463:1 2521:1 2539:1 2542:1 2732:1 2815:1 2816:1 2849:1 2923:1 2938:1 2942:1 2958:1 2976:1 2996:1 3061:1 3359:1 3456:1 3526:1 3673:1 3722:1 3825:1 3898:1 3910:1 3951:1 4093:1 4121:1 4163:1 4564:1 4566:1 4582:1 4896:1 4897:1 4936:1 5104:1 5220:1 5314:1 5403:1 5688:1 6042:1 6092:1 6094:1 6226:1 6873:1 7075:1 7485:1 7645:1 7696:1 7939:1 8404:1 8405:1 9574:1 10367:1 10368:1 10611:1 10777:1 11574:1 12983:1 13259:1 13260:1 14141:1 14142:1 #
-0.002000491894492528732740765917697 3:1 7:1 9:1 11:1 13:1 17:1 21:1 27:1 31:1 33:1 37:1 38:1 42:1 45:1 46:1 48:1 51:1 54:1 57:1 61:1 63:1 65:1 68:1 77:1 80:1 85:1 88:1 89:1 90:1 91:1 95:1 97:1 100:1 102:1 103:1 104:1 106:1 107:1 109:1 110:1 114:1 115:1 117:1 118:1 119:1 132:1 134:1 169:1 173:1 175:1 176:1 180:1 183:1 196:1 199:1 206:1 208:1 226:1 231:1 232:1 237:1 239:1 244:1 255:1 257:1 262:1 263:1 265:1 267:1 271:1 275:1 283:1 285:1 287:1 300:1 301:1 308:1 311:1 317:1 323:1 325:1 326:1 329:1 338:1 341:1 347:1 358:1 362:1 364:1 386:1 388:1 390:1 393:1 412:1 418:1 420:1 446:1 458:1 459:1 460:1 462:1 465:1 469:1 470:1 474:1 478:1 488:1 501:1 515:1 533:1 554:1 555:1 557:1 558:1 563:1 569:1 587:1 590:1 592:1 610:1 611:1 626:1 631:1 642:1 645:1 646:1 654:1 667:1 678:1 680:1 697:1 719:1 725:1 735:1 740:1 748:1 758:1 763:1 787:1 839:1 870:1 890:1 912:1 922:1 926:1 973:1 976:1 990:1 1003:1 1020:1 1026:1 1090:1 1110:1 1144:1 1154:1 1178:1 1207:1 1257:1 1259:1 1260:1 1348:1 1372:1 1374:1 1391:1 1410:1 1425:1 1436:1 1456:1 1485:1 1501:1 1517:1 1534:1 1574:1 1614:1 1623:1 1627:1 1661:1 1684:1 1694:1 1700:1 1749:1 1754:1 1799:1 1803:1 1821:1 1842:1 1847:1 1872:1 1914:1 1917:1 2017:1 2032:1 2050:1 2063:1 2150:1 2155:1 2182:1 2207:1 2233:1 2245:1 2261:1 2314:1 2380:1 2390:1 2415:1 2428:1 2488:1 2618:1 2620:1 2705:1 2709:1 2815:1 2899:1 2911:1 2938:1 2999:1 3142:1 3200:1 3298:1 3346:1 3394:1 3422:1 3485:1 3505:1 4075:1 4304:1 4311:1 4367:1 4398:1 4514:1 4561:1 4744:1 4934:1 5059:1 5110:1 5116:1 5132:1 5212:1 5234:1 5244:1 5396:1 5499:1 5743:1 6128:1 6171:1 6196:1 6252:1 6581:1 7018:1 7162:1 7298:1 7384:1 7579:1 7616:1 7744:1 7837:1 7907:1 8156:1 8157:1 8164:1 8369:1 8542:1 8729:1 9169:1 9256:1 9367:1 9567:1 10059:1 10060:1 10162:1 10373:1 10601:1 10745:1 10994:1 11215:1 11231:1 11297:1 11313:1 11888:1 12555:1 13079:1 13436:1 13517:1 13666:1 13842:1 13920:1 13933:1 14064:1 14143:1 14144:1 #
-0.0011419230480075740277734475114357 3:1 6:1 7:1 9:1 11:1 13:1 14:1 15:1 17:1 21:1 22:1 24:1 27:1 31:1 33:1 34:1 35:1 36:1 37:1 38:1 41:1 42:1 43:1 45:1 46:1 48:1 51:1 54:1 57:1 58:1 61:1 65:1 67:1 68:1 69:1 77:1 80:1 81:1 85:1 88:1 90:1 92:1 96:1 99:1 100:1 104:1 105:1 106:1 107:1 109:1 110:1 111:1 113:1 114:1 120:1 130:1 132:1 134:1 138:1 141:1 144:1 150:1 157:1 158:1 159:1 165:1 166:1 169:1 173:1 179:1 182:1 200:1 202:1 208:1 209:1 216:1 217:1 221:1 229:1 230:1 231:1 232:1 233:1 237:1 241:1 244:1 255:1 263:1 265:1 271:1 274:1 275:1 287:1 295:1 297:1 300:1 301:1 304:1 308:1 311:1 317:1 327:1 329:1 340:1 341:1 347:1 362:1 363:1 367:1 368:1 386:1 388:1 389:1 390:1 393:1 395:1 397:1 398:1 401:1 402:1 412:1 418:1 426:1 429:1 432:1 446:1 465:1 471:1 474:1 477:1 495:1 498:1 501:1 503:1 505:1 507:1 510:1 517:1 521:1 526:1 531:1 532:1 538:1 563:1 572:1 585:1 590:1 599:1 610:1 612:1 614:1 626:1 646:1 655:1 656:1 658:1 659:1 664:1 692:1 698:1 702:1 710:1 721:1 727:1 743:1 754:1 758:1 763:1 772:1 782:1 784:1 787:1 806:1 839:1 854:1 856:1 857:1 860:1 887:1 895:1 896:1 908:1 910:1 912:1 922:1 949:1 958:1 968:1 974:1 975:1 977:1 979:1 990:1 992:1 1029:1 1070:1 1077:1 1094:1 1095:1 1110:1 1133:1 1154:1 1177:1 1187:1 1192:1 1193:1 1207:1 1226:1 1251:1 1260:1 1284:1 1304:1 1336:1 1348:1 1372:1 1378:1 1386:1 1396:1 1401:1 1417:1 1432:1 1443:1 1455:1 1463:1 1471:1 1472:1 1489:1 1493:1 1548:1 1553:1 1568:1 1634:1 1635:1 1644:1 1645:1 1650:1 1656:1 1677:1 1681:1 1684:1 1779:1 1790:1 1933:1 1937:1 1938:1 2023:1 2048:1 2062:1 2089:1 2101:1 2137:1 2166:1 2233:1 2238:1 2239:1 2240:1 2247:1 2252:1 2257:1 2263:1 2312:1 2354:1 2374:1 2402:1 2530:1 2592:1 2622:1 2650:1 2670:1 2681:1 2682:1 2690:1 2712:1 2802:1 2803:1 2897:1 2898:1 2919:1 2923:1 2927:1 2933:1 2945:1 2965:1 3091:1 3151:1 3191:1 3334:1 3455:1 3456:1 3502:1 3551:1 3564:1 3577:1 3709:1 3732:1 3801:1 3871:1 3909:1 4001:1 4175:1 4178:1 4484:1 4512:1 4586:1 4775:1 4785:1 4858:1 4973:1 4991:1 5219:1 5451:1 5454:1 5494:1 5546:1 5581:1 5742:1 5824:1 5923:1 5927:1 6021:1 6328:1 6568:1 6570:1 6572:1 6589:1 6646:1 6823:1 6966:1 7078:1 7162:1 7167:1 7267:1 7271:1 7460:1 7489:1 7534:1 7939:1 8008:1 8271:1 8532:1 8670:1 8693:1 8907:1 9229:1 9342:1 9702:1 9759:1 9931:1 10058:1 10101:1 10185:1 10227:1 10584:1 11135:1 11270:1 11758:1 12312:1 12806:1 13999:1 14145:1 14146:1 #
0.003154841018321794410966818489328 1:1 2:1 3:1 4:1 5:1 6:1 7:1 8:1 9:1 10:1 11:1 12:1 13:1 14:1 15:1 16:1 17:1 18:1 19:1 20:1 21:1 22:1 23:1 24:1 25:1 26:1 27:1 28:1 29:1 30:1 31:1 32:1 33:1 34:1 35:1 36:1 37:1 38:1 39:1 40:1 41:1 42:1 43:1 44:1 45:1 46:1 47:1 48:1 49:1 50:1 51:1 52:1 53:1 54:1 55:1 56:1 57:1 58:1 59:1 60:1 61:1 62:1 63:1 64:1 65:1 66:1 67:1 68:1 69:1 70:1 71:1 72:1 73:1 74:1 75:1 76:1 77:1 78:1 79:1 80:1 81:1 82:1 83:1 84:1 85:1 86:1 87:1 88:1 89:1 90:1 91:1 92:1 93:1 94:1 95:1 96:1 97:1 98:1 99:1 100:1 101:1 102:1 103:1 104:1 105:1 106:1 107:1 108:1 109:1 110:1 111:1 112:1 113:1 114:1 115:1 116:1 117:1 118:1 119:1 120:1 121:1 122:1 123:1 124:1 125:1 126:1 127:1 128:1 129:1 130:1 131:1 132:1 133:1 134:1 135:1 136:1 137:1 138:1 139:1 140:1 141:1 142:1 143:1 144:1 145:1 146:1 147:1 148:1 149:1 150:1 151:1 152:1 153:1 154:1 155:1 156:1 157:1 158:1 159:1 160:1 161:1 162:1 163:1 164:1 165:1 166:1 167:1 168:1 169:1 170:1 171:1 172:1 173:1 174:1 175:1 176:1 177:1 178:1 179:1 180:1 181:1 182:1 183:1 184:1 185:1 186:1 187:1 188:1 189:1 190:1 191:1 192:1 193:1 194:1 195:1 196:1 197:1 198:1 199:1 200:1 201:1 202:1 203:1 204:1 205:1 206:1 207:1 208:1 209:1 210:1 211:1 212:1 213:1 214:1 215:1 216:1 217:1 218:1 219:1 220:1 221:1 222:1 223:1 224:1 225:1 226:1 227:1 228:1 229:1 230:1 231:1 232:1 233:1 234:1 235:1 236:1 237:1 238:1 239:1 240:1 241:1 242:1 243:1 244:1 245:1 246:1 247:1 248:1 249:1 250:1 251:1 252:1 253:1 254:1 255:1 256:1 257:1 258:1 259:1 260:1 261:1 262:1 263:1 264:1 265:1 266:1 267:1 268:1 269:1 270:1 271:1 272:1 273:1 274:1 275:1 276:1 277:1 278:1 279:1 280:1 281:1 282:1 283:1 284:1 285:1 286:1 287:1 288:1 289:1 290:1 291:1 292:1 293:1 294:1 295:1 296:1 297:1 298:1 299:1 300:1 301:1 302:1 303:1 304:1 305:1 306:1 307:1 308:1 309:1 310:1 311:1 312:1 313:1 314:1 315:1 316:1 317:1 318:1 319:1 320:1 321:1 322:1 323:1 324:1 325:1 326:1 327:1 328:1 329:1 330:1 331:1 332:1 333:1 334:1 335:1 336:1 337:1 338:1 339:1 340:1 341:1 342:1 343:1 344:1 345:1 346:1 347:1 348:1 349:1 350:1 351:1 352:1 353:1 354:1 355:1 356:1 357:1 358:1 359:1 360:1 361:1 362:1 363:1 364:1 365:1 366:1 367:1 368:1 369:1 370:1 371:1 372:1 373:1 374:1 375:1 376:1 377:1 378:1 379:1 380:1 381:1 382:1 383:1 384:1 385:1 386:1 387:1 388:1 389:1 390:1 391:1 392:1 393:1 394:1 395:1 396:1 397:1 398:1 #
0.003154841018321794410966818489328 1:1 3:1 6:1 7:1 9:1 10:1 11:1 13:1 14:1 17:1 21:1 27:1 31:1 32:1 33:1 36:1 37:1 38:1 41:1 42:1 45:1 46:1 51:1 53:1 57:1 58:1 61:1 63:1 65:1 68:1 77:1 80:1 81:1 83:1 85:1 87:1 88:1 90:1 91:1 92:1 97:1 99:1 100:1 104:1 107:1 109:1 110:1 111:1 115:1 117:1 129:1 130:1 132:1 137:1 140:1 141:1 150:1 157:1 158:1 163:1 169:1 173:1 183:1 200:1 204:1 208:1 221:1 224:1 226:1 231:1 232:1 234:1 237:1 241:1 244:1 247:1 255:1 268:1 271:1 275:1 280:1 283:1 287:1 292:1 295:1 298:1 300:1 306:1 308:1 309:1 316:1 327:1 329:1 338:1 352:1 364:1 369:1 385:1 389:1 390:1 397:1 399:1 400:1 401:1 402:1 403:1 404:1 405:1 406:1 407:1 408:1 409:1 410:1 411:1 412:1 413:1 414:1 415:1 416:1 417:1 418:1 419:1 420:1 421:1 422:1 423:1 424:1 425:1 426:1 427:1 428:1 429:1 430:1 431:1 432:1 433:1 434:1 435:1 436:1 437:1 438:1 439:1 440:1 441:1 442:1 443:1 444:1 445:1 446:1 447:1 448:1 449:1 450:1 451:1 452:1 453:1 454:1 455:1 456:1 457:1 458:1 459:1 460:1 461:1 462:1 463:1 464:1 465:1 466:1 467:1 468:1 469:1 470:1 471:1 472:1 473:1 474:1 475:1 476:1 477:1 478:1 479:1 480:1 481:1 482:1 483:1 484:1 485:1 486:1 487:1 488:1 489:1 490:1 491:1 492:1 493:1 494:1 495:1 496:1 497:1 498:1 499:1 500:1 501:1 502:1 503:1 504:1 505:1 506:1 507:1 508:1 509:1 510:1 511:1 512:1 513:1 514:1 515:1 516:1 517:1 518:1 519:1 520:1 521:1 522:1 523:1 524:1 525:1 526:1 527:1 528:1 529:1 530:1 531:1 532:1 533:1 534:1 535:1 536:1 537:1 538:1 539:1 540:1 541:1 542:1 543:1 544:1 545:1 546:1 547:1 548:1 549:1 550:1 551:1 552:1 553:1 554:1 555:1 556:1 557:1 558:1 559:1 560:1 561:1 562:1 563:1 564:1 565:1 566:1 567:1 568:1 569:1 570:1 571:1 572:1 573:1 574:1 575:1 576:1 577:1 578:1 579:1 580:1 581:1 582:1 583:1 584:1 585:1 586:1 587:1 588:1 589:1 590:1 591:1 592:1 593:1 594:1 595:1 596:1 597:1 598:1 599:1 600:1 601:1 #
0.003154841018321794410966818489328 3:1 5:1 6:1 7:1 9:1 10:1 11:1 13:1 15:1 17:1 21:1 22:1 27:1 31:1 32:1 33:1 35:1 36:1 37:1 38:1 42:1 45:1 46:1 48:1 51:1 57:1 59:1 61:1 65:1 67:1 68:1 77:1 80:1 90:1 92:1 99:1 100:1 103:1 104:1 105:1 106:1 107:1 109:1 110:1 111:1 113:1 122:1 129:1 132:1 134:1 137:1 143:1 150:1 157:1 158:1 159:1 163:1 169:1 179:1 180:1 183:1 208:1 221:1 226:1 232:1 239:1 241:1 242:1 255:1 262:1 263:1 271:1 275:1 277:1 280:1 282:1 287:1 295:1 298:1 310:1 311:1 317:1 323:1 327:1 341:1 350:1 360:1 376:1 389:1 390:1 395:1 401:1 402:1 403:1 412:1 429:1 459:1 463:1 470:1 471:1 477:1 482:1 488:1 497:1 498:1 504:1 532:1 535:1 536:1 555:1 560:1 567:1 590:1 596:1 602:1 603:1 604:1 605:1 606:1 607:1 608:1 609:1 610:1 611:1 612:1 613:1 614:1 615:1 616:1 617:1 618:1 619:1 620:1 621:1 622:1 623:1 624:1 625:1 626:1 627:1 628:1 629:1 630:1 631:1 632:1 633:1 634:1 635:1 636:1 637:1 638:1 639:1 640:1 641:1 642:1 643:1 644:1 645:1 646:1 647:1 648:1 649:1 650:1 651:1 652:1 653:1 654:1 655:1 656:1 657:1 658:1 659:1 660:1 661:1 662:1 663:1 664:1 665:1 666:1 667:1 668:1 669:1 670:1 671:1 672:1 673:1 674:1 675:1 676:1 677:1 678:1 679:1 680:1 681:1 682:1 683:1 684:1 685:1 686:1 687:1 688:1 689:1 690:1 691:1 692:1 693:1 694:1 695:1 696:1 697:1 698:1 699:1 700:1 701:1 702:1 703:1 704:1 705:1 706:1 707:1 708:1 709:1 710:1 711:1 712:1 713:1 714:1 715:1 716:1 717:1 718:1 719:1 720:1 721:1 722:1 723:1 724:1 725:1 726:1 727:1 728:1 729:1 #
0.00041259087445837306805038191548363 3:1 7:1 9:1 11:1 17:1 21:1 22:1 25:1 27:1 31:1 32:1 33:1 34:1 37:1 38:1 42:1 43:1 45:1 46:1 48:1 51:1 54:1 57:1 59:1 61:1 65:1 68:1 77:1 80:1 81:1 85:1 88:1 89:1 90:1 99:1 100:1 103:1 104:1 106:1 107:1 109:1 110:1 111:1 114:1 115:1 118:1 119:1 122:1 129:1 132:1 137:1 143:1 163:1 165:1 169:1 175:1 176:1 177:1 180:1 183:1 188:1 195:1 200:1 202:1 208:1 221:1 229:1 231:1 232:1 239:1 241:1 271:1 274:1 287:1 295:1 297:1 298:1 299:1 300:1 304:1 305:1 310:1 311:1 317:1 327:1 336:1 338:1 341:1 342:1 358:1 364:1 384:1 385:1 388:1 389:1 390:1 393:1 403:1 418:1 419:1 459:1 462:1 474:1 475:1 477:1 478:1 480:1 484:1 501:1 507:1 509:1 519:1 526:1 535:1 543:1 563:1 564:1 566:1 599:1 604:1 610:1 618:1 626:1 642:1 659:1 687:1 692:1 695:1 708:1 711:1 726:1 734:1 752:1 758:1 775:1 798:1 838:1 852:1 888:1 910:1 926:1 933:1 973:1 976:1 996:1 1004:1 1039:1 1046:1 1086:1 1091:1 1095:1 1130:1 1133:1 1181:1 1226:1 1237:1 1260:1 1273:1 1318:1 1319:1 1344:1 1348:1 1361:1 1368:1 1386:1 1401:1 1410:1 1417:1 1427:1 1439:1 1455:1 1486:1 1489:1 1493:1 1494:1 1501:1 1515:1 1530:1 1540:1 1568:1 1570:1 1585:1 1674:1 1677:1 1681:1 1685:1 1720:1 1726:1 1730:1 1737:1 1749:1 1775:1 1789:1 1797:1 1800:1 1872:1 1907:1 1933:1 1937:1 2060:1 2084:1 2097:1 2099:1 2142:1 2145:1 2163:1 2166:1 2208:1 2215:1 2252:1 2270:1 2363:1 2370:1 2436:1 2498:1 2511:1 2545:1 2554:1 2567:1 2574:1 2621:1 2622:1 2652:1 2691:1 2801:1 2813:1 2862:1 2929:1 2942:1 2958:1 2962:1 2976:1 2996:1 3013:1 3079:1 3115:1 3117:1 3128:1 3130:1 3146:1 3149:1 3272:1 3282:1 3303:1 3305:1 3354:1 3373:1 3382:1 3384:1 3526:1 3550:1 3587:1 3633:1 3730:1 3777:1 3836:1 3855:1 3905:1 3986:1 4021:1 4048:1 4163:1 4169:1 4192:1 4215:1 4216:1 4232:1 4298:1 4394:1 4435:1 4442:1 4512:1 4570:1 4613:1 4706:1 4809:1 4858:1 4941:1 4951:1 5113:1 5231:1 5429:1 5499:1 5550:1 5641:1 5703:1 5762:1 5829:1 6018:1 6135:1 6455:1 6506:1 6689:1 6698:1 6719:1 7460:1 7520:1 7962:1 8140:1 8155:1 8375:1 8528:1 8738:1 9276:1 9337:1 9512:1 9988:1 9994:1 10367:1 10440:1 11280:1 11810:1 12919:1 13349:1 13890:1 13891:1 13892:1 13893:1 #
0.003154841018321794410966818489328 3:1 6:1 9:1 11:1 15:1 17:1 20:1 21:1 22:1 27:1 28:1 31:1 32:1 33:1 37:1 38:1 42:1 46:1 48:1 51:1 54:1 57:1 61:1 65:1 68:1 77:1 80:1 82:1 83:1 84:1 85:1 88:1 89:1 90:1 95:1 99:1 100:1 103:1 106:1 107:1 109:1 110:1 114:1 117:1 118:1 122:1 123:1 125:1 129:1 132:1 141:1 143:1 144:1 148:1 150:1 157:1 165:1 166:1 169:1 173:1 175:1 180:1 183:1 200:1 208:1 209:1 221:1 226:1 231:1 232:1 234:1 241:1 242:1 258:1 263:1 271:1 277:1 287:1 290:1 295:1 296:1 301:1 308:1 310:1 311:1 312:1 316:1 327:1 329:1 341:1 358:1 362:1 384:1 399:1 402:1 407:1 428:1 429:1 432:1 435:1 454:1 459:1 463:1 470:1 477:1 487:1 498:1 507:1 512:1 521:1 530:1 536:1 559:1 563:1 567:1 571:1 572:1 573:1 596:1 597:1 599:1 612:1 626:1 631:1 640:1 642:1 646:1 650:1 654:1 659:1 687:1 697:1 710:1 733:1 737:1 745:1 746:1 748:1 750:1 752:1 757:1 763:1 783:1 794:1 795:1 827:1 839:1 841:1 847:1 853:1 865:1 887:1 896:1 912:1 927:1 938:1 946:1 964:1 975:1 990:1 1000:1 1004:1 1006:1 1020:1 1027:1 1028:1 1029:1 1030:1 1031:1 1032:1 1033:1 1034:1 1035:1 1036:1 1037:1 1038:1 1039:1 1040:1 1041:1 1042:1 1043:1 1044:1 1045:1 1046:1 1047:1 1048:1 1049:1 1050:1 1051:1 1052:1 1053:1 1054:1 1055:1 1056:1 1057:1 1058:1 1059:1 1060:1 1061:1 1062:1 1063:1 1064:1 1065:1 1066:1 1067:1 1068:1 1069:1 1070:1 1071:1 1072:1 1073:1 1074:1 1075:1 1076:1 1077:1 1078:1 1079:1 1080:1 1081:1 1082:1 1083:1 1084:1 1085:1 1086:1 1087:1 1088:1 1089:1 1090:1 1091:1 1092:1 1093:1 1094:1 1095:1 1096:1 1097:1 1098:1 1099:1 1100:1 1101:1 1102:1 1103:1 1104:1 1105:1 1106:1 1107:1 1108:1 1109:1 1110:1 1111:1 1112:1 1113:1 1114:1 1115:1 1116:1 1117:1 1118:1 1119:1 1120:1 1121:1 1122:1 1123:1 1124:1 1125:1 1126:1 1127:1 1128:1 1129:1 1130:1 1131:1 1132:1 1133:1 1134:1 1135:1 1136:1 1137:1 1138:1 1139:1 1140:1 1141:1 1142:1 1143:1 1144:1 1145:1 1146:1 1147:1 1148:1 1149:1 1150:1 1151:1 1152:1 1153:1 1154:1 1155:1 1156:1 1157:1 1158:1 1159:1 1160:1 1161:1 1162:1 1163:1 1164:1 1165:1 1166:1 1167:1 1168:1 1169:1 1170:1 1171:1 1172:1 1173:1 1174:1 1175:1 1176:1 1177:1 1178:1 1179:1 1180:1 1181:1 #
-0.003154841018321794410966818489328 2:1 3:1 5:1 6:1 7:1 9:1 10:1 11:1 13:1 15:1 17:1 21:1 22:1 27:1 31:1 32:1 33:1 34:1 35:1 36:1 37:1 38:1 41:1 42:1 43:1 45:1 46:1 47:1 48:1 51:1 54:1 57:1 58:1 59:1 61:1 65:1 66:1 67:1 68:1 76:1 77:1 80:1 81:1 82:1 83:1 85:1 87:1 88:1 89:1 91:1 92:1 95:1 99:1 100:1 103:1 104:1 106:1 107:1 109:1 110:1 111:1 112:1 114:1 117:1 119:1 120:1 123:1 130:1 131:1 132:1 137:1 140:1 143:1 158:1 159:1 163:1 165:1 169:1 171:1 173:1 175:1 176:1 179:1 180:1 182:1 183:1 185:1 196:1 200:1 202:1 208:1 221:1 226:1 228:1 229:1 231:1 232:1 234:1 235:1 239:1 241:1 244:1 245:1 255:1 258:1 260:1 262:1 263:1 268:1 271:1 274:1 275:1 277:1 283:1 287:1 288:1 292:1 298:1 300:1 301:1 302:1 306:1 308:1 309:1 310:1 311:1 312:1 313:1 314:1 315:1 316:1 317:1 327:1 328:1 329:1 336:1 337:1 341:1 347:1 348:1 360:1 362:1 369:1 371:1 383:1 385:1 388:1 390:1 398:1 401:1 403:1 407:1 410:1 411:1 412:1 418:1 425:1 429:1 432:1 444:1 452:1 454:1 458:1 462:1 463:1 465:1 470:1 474:1 477:1 480:1 487:1 488:1 495:1 498:1 501:1 504:1 507:1 521:1 526:1 527:1 531:1 532:1 533:1 535:1 563:1 566:1 571:1 572:1 573:1 579:1 590:1 592:1 596:1 597:1 599:1 604:1 607:1 609:1 610:1 612:1 617:1 618:1 621:1 626:1 627:1 636:1 642:1 649:1 650:1 659:1 660:1 661:1 680:1 681:1 688:1 696:1 702:1 708:1 717:1 722:1 725:1 735:1 741:1 745:1 748:1 752:1 763:1 769:1 773:1 775:1 783:1 800:1 807:1 810:1 820:1 822:1 842:1 847:1 860:1 862:1 868:1 891:1 893:1 895:1 897:1 899:1 905:1 908:1 910:1 912:1 922:1 924:1 927:1 931:1 946:1 970:1 972:1 973:1 976:1 977:1 989:1 992:1 996:1 1011:1 1026:1 1028:1 1038:1 1041:1 1051:1 1062:1 1077:1 1084:1 1086:1 1090:1 1091:1 1094:1 1095:1 1096:1 1099:1 1103:1 1110:1 1111:1 1120:1 1138:1 1148:1 1149:1 1162:1 1163:1 1165:1 1199:1 1228:1 1238:1 1242:1 1261:1 1266:1 1282:1 1293:1 1309:1 1310:1 1313:1 1315:1 1316:1 1330:1 1333:1 1335:1 1343:1 1344:1 1364:1 1370:1 1372:1 1378:1 1386:1 1387:1 1391:1 1396:1 1407:1 1410:1 1415:1 1435:1 1452:1 1463:1 1477:1 1485:1 1488:1 1494:1 1500:1 1501:1 1507:1 1510:1 1513:1 1516:1 1540:1 1553:1 1588:1 1610:1 1623:1 1629:1 1636:1 1667:1 1677:1 1681:1 1696:1 1713:1 1730:1 1736:1 1749:1 1774:1 1775:1 1777:1 1789:1 1804:1 1814:1 1821:1 1841:1 1842:1 1858:1 1868:1 1907:1 1914:1 1937:1 1961:1 1964:1 1983:1 1985:1 2003:1 2019:1 2044:1 2062:1 2063:1 2098:1 2099:1 2116:1 2198:1 2200:1 2213:1 2214:1 2226:1 2247:1 2263:1 2288:1 2307:1 2308:1 2312:1 2347:1 2352:1 2381:1 2382:1 2388:1 2415:1 2419:1 2420:1 2517:1 2524:1 2539:1 2556:1 2567:1 2622:1 2677:1 2682:1 2702:1 2709:1 2715:1 2777:1 2802:1 2810:1 2837:1 2846:1 2850:1 2930:1 2942:1 2994:1 3031:1 3047:1 3104:1 3112:1 3200:1 3208:1 3229:1 3234:1 3349:1 3359:1 3408:1 3415:1 3416:1 3420:1 3465:1 3487:1 3506:1 3526:1 3538:1 3557:1 3572:1 3581:1 3612:1 3625:1 3637:1 3716:1 3842:1 3856:1 3860:1 3883:1 3895:1 3905:1 3907:1 3930:1 4021:1 4060:1 4088:1 4204:1 4561:1 4567:1 4593:1 4644:1 4685:1 4695:1 4858:1 4882:1 4940:1 4952:1 4972:1 4992:1 5176:1 5340:1 5382:1 5391:1 5521:1 5747:1 5761:1 5782:1 5841:1 5920:1 5989:1 6385:1 6494:1 6500:1 6506:1 6564:1 6565:1 6566:1 6567:1 6767:1 6885:1 6886:1 6892:1 7047:1 7048:1 7132:1 7151:1 7206:1 7322:1 7348:1 7354:1 7355:1 7356:1 7384:1 7414:1 7448:1 7607:1 7617:1 7619:1 7627:1 7632:1 7986:1 7999:1 8192:1 8203:1 8366:1 9084:1 9085:1 9351:1 9423:1 10042:1 10176:1 10344:1 10404:1 10912:1 11053:1 11279:1 11598:1 11678:1 12023:1 12086:1 12273:1 12274:1 12432:1 13193:1 13194:1 13241:1 13285:1 13295:1 13355:1 13356:1 13387:1 13753:1 13937:1 14369:1 14383:1 #
-0.0011344039913503485735024600700172 1:1 3:1 6:1 7:1 9:1 11:1 13:1 15:1 17:1 19:1 21:1 22:1 27:1 31:1 32:1 33:1 34:1 35:1 36:1 37:1 41:1 42:1 43:1 45:1 46:1 48:1 51:1 54:1 55:1 57:1 60:1 61:1 63:1 65:1 67:1 68:1 70:1 76:1 77:1 80:1 81:1 82:1 83:1 85:1 88:1 89:1 90:1 92:1 99:1 100:1 102:1 103:1 105:1 106:1 107:1 109:1 110:1 113:1 114:1 115:1 117:1 118:1 119:1 120:1 129:1 130:1 131:1 132:1 138:1 140:1 141:1 144:1 148:1 150:1 157:1 158:1 163:1 165:1 166:1 169:1 173:1 175:1 176:1 179:1 183:1 185:1 188:1 200:1 204:1 208:1 209:1 211:1 221:1 224:1 226:1 227:1 228:1 229:1 230:1 231:1 232:1 234:1 235:1 237:1 238:1 239:1 241:1 244:1 245:1 250:1 255:1 258:1 261:1 262:1 263:1 264:1 265:1 266:1 271:1 275:1 277:1 280:1 287:1 288:1 290:1 292:1 296:1 298:1 301:1 302:1 304:1 306:1 307:1 308:1 310:1 311:1 316:1 317:1 320:1 323:1 325:1 327:1 328:1 329:1 338:1 341:1 347:1 350:1 359:1 362:1 369:1 378:1 386:1 389:1 390:1 393:1 395:1 396:1 397:1 401:1 402:1 403:1 406:1 412:1 419:1 421:1 422:1 425:1 427:1 429:1 430:1 432:1 447:1 463:1 465:1 468:1 470:1 474:1 477:1 478:1 479:1 487:1 488:1 498:1 501:1 502:1 504:1 505:1 507:1 510:1 519:1 521:1 527:1 528:1 532:1 535:1 536:1 552:1 555:1 556:1 558:1 559:1 563:1 566:1 567:1 568:1 569:1 571:1 572:1 573:1 575:1 585:1 596:1 599:1 608:1 610:1 612:1 613:1 616:1 626:1 632:1 636:1 642:1 644:1 645:1 648:1 656:1 658:1 659:1 666:1 680:1 698:1 702:1 705:1 706:1 707:1 714:1 716:1 721:1 725:1 727:1 746:1 755:1 758:1 760:1 761:1 766:1 771:1 779:1 781:1 794:1 795:1 797:1 800:1 801:1 822:1 827:1 838:1 839:1 844:1 848:1 851:1 867:1 868:1 890:1 894:1 895:1 897:1 910:1 918:1 919:1 922:1 928:1 933:1 962:1 963:1 964:1 967:1 973:1 976:1 985:1 986:1 989:1 990:1 1003:1 1007:1 1012:1 1026:1 1033:1 1046:1 1077:1 1080:1 1087:1 1090:1 1091:1 1103:1 1105:1 1106:1 1110:1 1111:1 1134:1 1141:1 1158:1 1159:1 1162:1 1187:1 1189:1 1193:1 1217:1 1223:1 1228:1 1243:1 1253:1 1273:1 1288:1 1297:1 1299:1 1301:1 1302:1 1304:1 1315:1 1321:1 1337:1 1340:1 1341:1 1343:1 1347:1 1373:1 1375:1 1390:1 1395:1 1401:1 1407:1 1410:1 1432:1 1448:1 1452:1 1462:1 1464:1 1477:1 1480:1 1486:1 1489:1 1507:1 1512:1 1516:1 1534:1 1556:1 1561:1 1588:1 1598:1 1655:1 1656:1 1661:1 1669:1 1681:1 1688:1 1702:1 1720:1 1727:1 1729:1 1734:1 1747:1 1754:1 1755:1 1759:1 1777:1 1804:1 1859:1 1860:1 1889:1 1907:1 1919:1 1923:1 1934:1 1941:1 1946:1 1952:1 1957:1 1960:1 1983:1 1992:1 1999:1 2000:1 2031:1 2037:1 2047:1 2059:1 2062:1 2080:1 2082:1 2122:1 2138:1 2150:1 2207:1 2224:1 2235:1 2246:1 2266:1 2298:1 2300:1 2308:1 2312:1 2323:1 2352:1 2366:1 2398:1 2417:1 2432:1 2436:1 2511:1 2521:1 2524:1 2549:1 2582:1 2633:1 2639:1 2648:1 2662:1 2681:1 2691:1 2700:1 2702:1 2712:1 2726:1 2769:1 2771:1 2788:1 2790:1 2802:1 2826:1 2862:1 2868:1 2871:1 2885:1 2897:1 2918:1 2948:1 2956:1 2958:1 2964:1 2965:1 2996:1 3052:1 3063:1 3069:1 3072:1 3105:1 3130:1 3132:1 3137:1 3160:1 3162:1 3191:1 3192:1 3193:1 3195:1 3210:1 3239:1 3241:1 3268:1 3295:1 3296:1 3309:1 3349:1 3354:1 3357:1 3384:1 3455:1 3465:1 3498:1 3528:1 3541:1 3573:1 3585:1 3587:1 3632:1 3665:1 3666:1 3675:1 3684:1 3704:1 3713:1 3722:1 3764:1 3801:1 3842:1 3865:1 3875:1 3881:1 3896:1 3900:1 3914:1 3947:1 3968:1 3994:1 4027:1 4057:1 4091:1 4099:1 4144:1 4184:1 4185:1 4215:1 4223:1 4256:1 4295:1 4304:1 4317:1 4320:1 4322:1 4352:1 4360:1 4377:1 4389:1 4401:1 4410:1 4423:1 4450:1 4460:1 4466:1 4542:1 4569:1 4578:1 4580:1 4581:1 4593:1 4615:1 4662:1 4667:1 4686:1 4730:1 4733:1 4775:1 4777:1 4788:1 4869:1 4982:1 5025:1 5026:1 5099:1 5128:1 5135:1 5170:1 5174:1 5180:1 5201:1 5225:1 5238:1 5292:1 5316:1 5357:1 5361:1 5370:1 5380:1 5390:1 5408:1 5446:1 5493:1 5496:1 5504:1 5539:1 5577:1 5582:1 5635:1 5669:1 5686:1 5702:1 5737:1 5766:1 5869:1 5874:1 5875:1 5918:1 5995:1 5996:1 6011:1 6031:1 6175:1 6222:1 6224:1 6257:1 6288:1 6289:1 6304:1 6369:1 6371:1 6407:1 6431:1 6539:1 6541:1 6589:1 6657:1 6668:1 6682:1 6685:1 6714:1 6725:1 6797:1 6833:1 6973:1 6981:1 7151:1 7173:1 7224:1 7249:1 7307:1 7317:1 7337:1 7368:1 7408:1 7417:1 7426:1 7450:1 7453:1 7478:1 7498:1 7569:1 7754:1 7834:1 7859:1 7934:1 8043:1 8185:1 8275:1 8357:1 8472:1 8490:1 8522:1 8682:1 8825:1 8925:1 8932:1 9022:1 9217:1 9257:1 9263:1 9315:1 9330:1 9350:1 9453:1 9566:1 9572:1 9636:1 9689:1 9830:1 9891:1 10052:1 10104:1 10172:1 10263:1 10273:1 10295:1 10530:1 10534:1 10550:1 10680:1 10795:1 10858:1 10988:1 11052:1 11085:1 11282:1 11321:1 11362:1 11395:1 11411:1 11486:1 11499:1 11506:1 11628:1 11804:1 11959:1 12062:1 12162:1 12189:1 12360:1 12541:1 12731:1 12756:1 12852:1 13038:1 13070:1 13074:1 13140:1 13214:1 13384:1 13432:1 13455:1 13547:1 14006:1 14134:1 14247:1 14325:1 14326:1 14327:1 14411:1 14424:1 14469:1 14476:1 14566:1 14830:1 14831:1 #
-0.003154841018321794410966818489328 3:1 4:1 5:1 6:1 7:1 9:1 11:1 13:1 15:1 16:1 17:1 18:1 19:1 20:1 21:1 22:1 25:1 27:1 31:1 32:1 33:1 34:1 36:1 37:1 38:1 42:1 43:1 45:1 46:1 48:1 51:1 54:1 55:1 57:1 59:1 61:1 63:1 65:1 66:1 67:1 68:1 70:1 73:1 77:1 78:1 80:1 82:1 83:1 85:1 88:1 89:1 90:1 91:1 92:1 95:1 96:1 97:1 99:1 100:1 104:1 109:1 110:1 111:1 115:1 117:1 119:1 120:1 123:1 129:1 130:1 132:1 138:1 141:1 143:1 144:1 145:1 150:1 163:1 165:1 166:1 169:1 173:1 174:1 175:1 176:1 182:1 183:1 188:1 199:1 200:1 207:1 208:1 216:1 218:1 221:1 226:1 227:1 231:1 232:1 234:1 239:1 242:1 250:1 256:1 258:1 262:1 265:1 268:1 270:1 271:1 274:1 275:1 280:1 282:1 283:1 287:1 292:1 295:1 297:1 298:1 300:1 301:1 302:1 310:1 312:1 313:1 316:1 317:1 327:1 329:1 341:1 342:1 354:1 362:1 369:1 392:1 393:1 397:1 399:1 400:1 401:1 402:1 406:1 407:1 412:1 419:1 426:1 440:1 446:1 450:1 457:1 462:1 463:1 466:1 474:1 477:1 478:1 494:1 498:1 501:1 504:1 505:1 507:1 519:1 521:1 529:1 532:1 536:1 542:1 544:1 555:1 562:1 563:1 567:1 568:1 579:1 585:1 587:1 590:1 596:1 599:1 604:1 611:1 617:1 621:1 626:1 636:1 642:1 645:1 658:1 659:1 660:1 678:1 692:1 699:1 702:1 709:1 710:1 717:1 720:1 721:1 727:1 735:1 745:1 751:1 752:1 760:1 763:1 769:1 785:1 808:1 825:1 839:1 865:1 882:1 887:1 903:1 906:1 910:1 913:1 918:1 922:1 924:1 930:1 946:1 951:1 965:1 968:1 994:1 1006:1 1011:1 1012:1 1034:1 1049:1 1078:1 1090:1 1111:1 1116:1 1120:1 1144:1 1148:1 1177:1 1181:1 1187:1 1190:1 1226:1 1243:1 1261:1 1266:1 1272:1 1278:1 1285:1 1288:1 1296:1 1331:1 1348:1 1352:1 1353:1 1361:1 1366:1 1390:1 1399:1 1443:1 1448:1 1452:1 1485:1 1489:1 1497:1 1500:1 1502:1 1504:1 1507:1 1510:1 1527:1 1534:1 1540:1 1557:1 1560:1 1571:1 1629:1 1633:1 1635:1 1636:1 1641:1 1644:1 1669:1 1696:1 1731:1 1737:1 1740:1 1751:1 1755:1 1786:1 1789:1 1790:1 1799:1 1800:1 1821:1 1860:1 1872:1 1904:1 1907:1 1934:1 1938:1 1989:1 2002:1 2003:1 2053:1 2058:1 2082:1 2097:1 2098:1 2101:1 2103:1 2150:1 2174:1 2257:1 2268:1 2302:1 2314:1 2336:1 2348:1 2364:1 2377:1 2380:1 2398:1 2419:1 2456:1 2491:1 2495:1 2551:1 2570:1 2597:1 2631:1 2646:1 2668:1 2688:1 2796:1 2800:1 2816:1 2817:1 2848:1 2885:1 2893:1 2906:1 2958:1 2996:1 3058:1 3069:1 3071:1 3072:1 3098:1 3191:1 3207:1 3224:1 3230:1 3305:1 3323:1 3344:1 3411:1 3487:1 3495:1 3587:1 3638:1 3722:1 3743:1 3756:1 3800:1 3826:1 3925:1 3930:1 3938:1 3951:1 3994:1 4021:1 4056:1 4116:1 4133:1 4136:1 4173:1 4175:1 4186:1 4339:1 4346:1 4353:1 4423:1 4485:1 4488:1 4496:1 4507:1 4509:1 4587:1 4711:1 4790:1 4852:1 4920:1 4939:1 4941:1 4997:1 5019:1 5040:1 5126:1 5159:1 5179:1 5204:1 5234:1 5265:1 5308:1 5318:1 5334:1 5344:1 5419:1 5499:1 5519:1 5538:1 5641:1 5661:1 5672:1 5827:1 5829:1 5901:1 5944:1 5976:1 6050:1 6090:1 6101:1 6186:1 6233:1 6273:1 6290:1 6311:1 6395:1 6402:1 6433:1 6490:1 6574:1 6628:1 6691:1 6776:1 6777:1 6903:1 6942:1 6952:1 7004:1 7126:1 7195:1 7331:1 7403:1 7475:1 7570:1 8147:1 8207:1 8384:1 8387:1 8490:1 8503:1 8530:1 8617:1 8661:1 8731:1 8775:1 8832:1 8857:1 8921:1 8988:1 9025:1 9234:1 9408:1 9502:1 9544:1 9571:1 9629:1 9700:1 10003:1 10058:1 10127:1 10154:1 10159:1 10162:1 10250:1 10511:1 10880:1 11037:1 11124:1 11238:1 11617:1 11670:1 11675:1 11706:1 11707:1 11742:1 11848:1 11918:1 11949:1 12084:1 12123:1 12180:1 12181:1 12239:1 12374:1 12499:1 12526:1 12537:1 12625:1 12960:1 13316:1 13802:1 13900:1 14006:1 14205:1 14271:1 14584:1 14589:1 14597:1 #
-0.003154841018321794410966818489328 3:1 6:1 7:1 9:1 11:1 13:1 15:1 17:1 21:1 22:1 27:1 31:1 33:1 36:1 37:1 40:1 42:1 43:1 45:1 48:1 51:1 52:1 54:1 55:1 57:1 61:1 65:1 68:1 69:1 76:1 77:1 80:1 82:1 83:1 85:1 88:1 89:1 90:1 91:1 92:1 95:1 97:1 98:1 99:1 100:1 103:1 104:1 106:1 107:1 109:1 110:1 111:1 114:1 115:1 117:1 123:1 131:1 132:1 134:1 138:1 141:1 143:1 144:1 146:1 152:1 157:1 158:1 163:1 165:1 166:1 169:1 173:1 176:1 179:1 180:1 182:1 183:1 185:1 200:1 202:1 206:1 208:1 215:1 216:1 221:1 226:1 227:1 231:1 232:1 234:1 235:1 237:1 247:1 255:1 257:1 258:1 262:1 263:1 264:1 271:1 275:1 277:1 280:1 282:1 283:1 287:1 288:1 290:1 292:1 295:1 298:1 300:1 301:1 305:1 308:1 310:1 311:1 323:1 327:1 328:1 329:1 338:1 344:1 347:1 362:1 367:1 369:1 371:1 373:1 383:1 384:1 385:1 390:1 399:1 401:1 402:1 406:1 418:1 420:1 429:1 430:1 434:1 441:1 444:1 446:1 454:1 456:1 459:1 465:1 470:1 474:1 477:1 478:1 480:1 482:1 488:1 489:1 498:1 501:1 502:1 507:1 521:1 530:1 531:1 535:1 536:1 563:1 572:1 575:1 579:1 580:1 592:1 599:1 601:1 604:1 610:1 612:1 626:1 631:1 645:1 654:1 658:1 659:1 666:1 692:1 697:1 703:1 706:1 709:1 710:1 724:1 725:1 733:1 735:1 736:1 745:1 746:1 751:1 757:1 775:1 782:1 794:1 797:1 800:1 804:1 808:1 820:1 848:1 859:1 864:1 867:1 894:1 895:1 896:1 910:1 912:1 921:1 924:1 946:1 968:1 971:1 972:1 973:1 974:1 975:1 977:1 978:1 996:1 1001:1 1003:1 1004:1 1007:1 1019:1 1027:1 1036:1 1046:1 1052:1 1077:1 1082:1 1086:1 1094:1 1110:1 1111:1 1113:1 1132:1 1140:1 1148:1 1189:1 1224:1 1260:1 1261:1 1276:1 1283:1 1287:1 1294:1 1295:1 1299:1 1310:1 1334:1 1335:1 1347:1 1371:1 1372:1 1375:1 1378:1 1407:1 1426:1 1431:1 1446:1 1452:1 1455:1 1472:1 1484:1 1485:1 1486:1 1488:1 1499:1 1500:1 1507:1 1526:1 1539:1 1547:1 1561:1 1568:1 1610:1 1625:1 1637:1 1651:1 1658:1 1690:1 1696:1 1704:1 1736:1 1746:1 1754:1 1789:1 1801:1 1818:1 1829:1 1831:1 1832:1 1844:1 1851:1 1852:1 1859:1 1860:1 1869:1 1870:1 1886:1 1909:1 1914:1 1917:1 1919:1 1920:1 1921:1 1926:1 1927:1 1967:1 1981:1 2031:1 2044:1 2062:1 2099:1 2153:1 2197:1 2208:1 2224:1 2281:1 2287:1 2366:1 2379:1 2427:1 2433:1 2448:1 2483:1 2484:1 2488:1 2501:1 2511:1 2525:1 2531:1 2543:1 2559:1 2633:1 2636:1 2668:1 2689:1 2716:1 2733:1 2816:1 2850:1 2851:1 2873:1 2885:1 2900:1 2927:1 2930:1 2985:1 3014:1 3031:1 3050:1 3052:1 3078:1 3096:1 3103:1 3106:1 3128:1 3150:1 3151:1 3173:1 3176:1 3183:1 3242:1 3270:1 3274:1 3276:1 3321:1 3361:1 3374:1 3389:1 3417:1 3522:1 3526:1 3604:1 3641:1 3697:1 3726:1 3837:1 3842:1 3889:1 3995:1 4014:1 4019:1 4069:1 4073:1 4115:1 4135:1 4137:1 4240:1 4260:1 4271:1 4275:1 4339:1 4430:1 4489:1 4629:1 4641:1 4670:1 4692:1 4707:1 4892:1 4929:1 4952:1 4976:1 5091:1 5136:1 5162:1 5253:1 5294:1 5308:1 5577:1 5628:1 5701:1 5762:1 5872:1 5880:1 5921:1 6111:1 6120:1 6233:1 6271:1 6284:1 6317:1 6407:1 6646:1 6817:1 6820:1 6880:1 7315:1 7361:1 7409:1 7431:1 7470:1 7669:1 7710:1 7935:1 7954:1 8259:1 8267:1 8525:1 8539:1 8619:1 8766:1 8826:1 8951:1 9046:1 9102:1 9250:1 9313:1 9393:1 9484:1 9790:1 9852:1 9873:1 9905:1 10104:1 10195:1 10297:1 10332:1 10465:1 10814:1 10861:1 11164:1 11240:1 11432:1 11512:1 11770:1 12029:1 12044:1 12167:1 12191:1 12394:1 12462:1 12707:1 12829:1 13064:1 13372:1 13459:1 13538:1 13608:1 13642:1 13727:1 14089:1 14245:1 14408:1 14505:1 #
-0.0024674856375914047505737425325378 3:1 5:1 6:1 7:1 9:1 11:1 13:1 15:1 17:1 21:1 22:1 24:1 27:1 31:1 32:1 33:1 34:1 35:1 37:1 38:1 41:1 42:1 43:1 45:1 46:1 48:1 49:1 51:1 54:1 55:1 57:1 59:1 61:1 65:1 66:1 68:1 71:1 73:1 74:1 76:1 77:1 80:1 81:1 82:1 83:1 85:1 86:1 87:1 88:1 89:1 91:1 92:1 96:1 99:1 100:1 103:1 106:1 107:1 109:1 110:1 111:1 113:1 114:1 115:1 119:1 120:1 123:1 130:1 131:1 132:1 137:1 138:1 141:1 144:1 146:1 147:1 150:1 159:1 163:1 169:1 171:1 173:1 175:1 180:1 182:1 183:1 191:1 200:1 208:1 222:1 224:1 226:1 227:1 231:1 232:1 234:1 235:1 239:1 241:1 243:1 258:1 263:1 270:1 271:1 274:1 275:1 277:1 280:1 283:1 287:1 292:1 298:1 304:1 305:1 309:1 311:1 316:1 323:1 327:1 328:1 329:1 338:1 340:1 341:1 348:1 358:1 360:1 362:1 368:1 369:1 383:1 385:1 389:1 390:1 397:1 401:1 402:1 403:1 406:1 413:1 431:1 444:1 446:1 452:1 454:1 459:1 462:1 463:1 470:1 471:1 474:1 477:1 490:1 495:1 497:1 498:1 501:1 507:1 512:1 516:1 521:1 524:1 526:1 531:1 533:1 536:1 537:1 542:1 562:1 563:1 568:1 570:1 573:1 575:1 586:1 587:1 596:1 599:1 604:1 607:1 610:1 612:1 616:1 617:1 621:1 626:1 642:1 653:1 654:1 655:1 656:1 658:1 659:1 661:1 691:1 692:1 696:1 697:1 702:1 725:1 728:1 735:1 737:1 746:1 747:1 748:1 758:1 760:1 774:1 775:1 783:1 806:1 817:1 830:1 839:1 841:1 853:1 864:1 866:1 883:1 886:1 887:1 890:1 897:1 899:1 900:1 903:1 910:1 911:1 912:1 932:1 933:1 936:1 938:1 946:1 949:1 966:1 968:1 972:1 973:1 974:1 976:1 977:1 978:1 989:1 1010:1 1011:1 1026:1 1027:1 1028:1 1029:1 1049:1 1051:1 1070:1 1077:1 1085:1 1086:1 1091:1 1094:1 1103:1 1105:1 1110:1 1111:1 1120:1 1131:1 1149:1 1178:1 1190:1 1207:1 1221:1 1226:1 1228:1 1243:1 1267:1 1280:1 1283:1 1288:1 1293:1 1308:1 1318:1 1319:1 1340:1 1360:1 1366:1 1368:1 1370:1 1373:1 1374:1 1378:1 1390:1 1396:1 1410:1 1439:1 1440:1 1446:1 1464:1 1484:1 1485:1 1486:1 1493:1 1500:1 1516:1 1526:1 1559:1 1561:1 1568:1 1594:1 1606:1 1622:1 1628:1 1645:1 1661:1 1662:1 1665:1 1679:1 1683:1 1684:1 1693:1 1719:1 1725:1 1747:1 1766:1 1800:1 1836:1 1837:1 1851:1 1933:1 1970:1 1985:1 2012:1 2032:1 2062:1 2091:1 2102:1 2110:1 2145:1 2166:1 2170:1 2173:1 2180:1 2234:1 2236:1 2242:1 2308:1 2313:1 2314:1 2355:1 2385:1 2394:1 2401:1 2407:1 2458:1 2470:1 2480:1 2482:1 2486:1 2490:1 2495:1 2503:1 2516:1 2538:1 2540:1 2608:1 2625:1 2626:1 2627:1 2629:1 2668:1 2681:1 2686:1 2700:1 2702:1 2712:1 2721:1 2733:1 2795:1 2804:1 2805:1 2809:1 2834:1 2854:1 2885:1 2933:1 2958:1 2965:1 2983:1 2991:1 2999:1 3001:1 3005:1 3007:1 3038:1 3075:1 3105:1 3116:1 3158:1 3202:1 3216:1 3270:1 3314:1 3344:1 3394:1 3465:1 3485:1 3548:1 3563:1 3569:1 3572:1 3580:1 3595:1 3622:1 3716:1 3798:1 3832:1 3835:1 3865:1 3915:1 3917:1 3977:1 4003:1 4055:1 4121:1 4133:1 4147:1 4187:1 4312:1 4389:1 4534:1 4540:1 4576:1 4638:1 4677:1 4711:1 4733:1 4770:1 4771:1 4923:1 4985:1 5008:1 5083:1 5213:1 5272:1 5275:1 5388:1 5396:1 5422:1 5429:1 5489:1 5521:1 5544:1 5546:1 5550:1 5655:1 5683:1 5694:1 5797:1 5812:1 5868:1 5910:1 5979:1 6042:1 6047:1 6226:1 6230:1 6296:1 6391:1 6451:1 6474:1 6484:1 6489:1 6500:1 6544:1 6673:1 6702:1 6719:1 6848:1 6870:1 6982:1 6988:1 7097:1 7286:1 7672:1 7797:1 7833:1 7860:1 7904:1 7930:1 8008:1 8068:1 8082:1 8117:1 8121:1 8140:1 8184:1 8260:1 8365:1 8424:1 8483:1 8495:1 8680:1 8691:1 8704:1 8724:1 8815:1 8848:1 8851:1 8856:1 8907:1 8939:1 9123:1 9124:1 9246:1 9286:1 9336:1 9499:1 9549:1 9879:1 10025:1 10111:1 10185:1 10426:1 10774:1 10831:1 10886:1 10946:1 11220:1 11285:1 11431:1 11543:1 11616:1 11637:1 11763:1 11857:1 11872:1 12001:1 12023:1 12147:1 12330:1 12638:1 12705:1 12781:1 12946:1 13414:1 13543:1 13640:1 14212:1 14803:1 14964:1 14965:1 #
0.0010630765713040089132102039570782 2:1 3:1 6:1 7:1 9:1 11:1 13:1 17:1 21:1 22:1 27:1 31:1 33:1 35:1 36:1 37:1 38:1 42:1 45:1 46:1 48:1 51:1 54:1 57:1 58:1 59:1 61:1 63:1 65:1 67:1 70:1 76:1 77:1 80:1 85:1 88:1 89:1 90:1 91:1 100:1 103:1 104:1 106:1 107:1 109:1 110:1 111:1 114:1 115:1 116:1 117:1 119:1 120:1 132:1 138:1 140:1 141:1 143:1 163:1 165:1 173:1 175:1 176:1 180:1 196:1 199:1 200:1 221:1 226:1 229:1 231:1 233:1 235:1 237:1 255:1 258:1 262:1 265:1 275:1 287:1 292:1 300:1 301:1 305:1 308:1 309:1 311:1 316:1 317:1 326:1 327:1 341:1 347:1 360:1 362:1 365:1 369:1 386:1 388:1 395:1 400:1 401:1 402:1 403:1 407:1 412:1 444:1 446:1 460:1 467:1 474:1 478:1 498:1 501:1 505:1 507:1 521:1 538:1 551:1 552:1 558:1 563:1 574:1 575:1 587:1 599:1 604:1 606:1 607:1 610:1 617:1 642:1 656:1 658:1 660:1 691:1 692:1 696:1 697:1 702:1 710:1 721:1 724:1 733:1 735:1 797:1 832:1 864:1 883:1 912:1 913:1 921:1 923:1 965:1 966:1 990:1 1009:1 1028:1 1049:1 1086:1 1094:1 1095:1 1110:1 1140:1 1168:1 1187:1 1237:1 1252:1 1260:1 1346:1 1374:1 1390:1 1406:1 1410:1 1432:1 1443:1 1446:1 1452:1 1453:1 1476:1 1611:1 1623:1 1665:1 1681:1 1700:1 1766:1 1772:1 1810:1 1937:1 1938:1 1939:1 1990:1 2017:1 2068:1 2091:1 2098:1 2127:1 2141:1 2166:1 2329:1 2363:1 2374:1 2382:1 2383:1 2384:1 2385:1 2386:1 2387:1 2388:1 2389:1 2390:1 2391:1 2392:1 2393:1 2394:1 2395:1 2396:1 2397:1 2398:1 2399:1 2400:1 2401:1 2402:1 2403:1 2404:1 2405:1 2406:1 2407:1 2408:1 2409:1 2410:1 2411:1 2412:1 2413:1 2414:1 2415:1 2416:1 2417:1 2418:1 2419:1 2420:1 2421:1 2422:1 2423:1 2424:1 2425:1 2426:1 2427:1 2428:1 2429:1 2430:1 2431:1 2432:1 2433:1 2434:1 2435:1 2436:1 2437:1 2438:1 2439:1 2440:1 2441:1 2442:1 2443:1 2444:1 2445:1 2446:1 2447:1 2448:1 2449:1 2450:1 2451:1 2452:1 2453:1 2454:1 2455:1 2456:1 2457:1 2458:1 2459:1 2460:1 2461:1 2462:1 2463:1 2464:1 #
0.003154841018321794410966818489328 6:1 9:1 11:1 13:1 14:1 15:1 17:1 21:1 22:1 27:1 31:1 32:1 33:1 34:1 36:1 37:1 41:1 42:1 45:1 48:1 51:1 54:1 57:1 61:1 63:1 65:1 67:1 76:1 77:1 80:1 89:1 90:1 92:1 100:1 109:1 114:1 119:1 132:1 163:1 169:1 173:1 176:1 196:1 208:1 216:1 226:1 263:1 265:1 275:1 283:1 287:1 310:1 362:1 390:1 402:1 412:1 418:1 419:1 446:1 459:1 465:1 471:1 474:1 519:1 569:1 610:1 644:1 658:1 692:1 696:1 731:1 757:1 784:1 785:1 852:1 865:1 895:1 933:1 959:1 996:1 1077:1 1095:1 1187:1 1304:1 1369:1 1374:1 1378:1 1406:1 1407:1 1410:1 1432:1 1645:1 1755:1 1857:1 1935:1 1938:1 2002:1 2166:1 2263:1 2327:1 2434:1 2650:1 2862:1 2964:1 3096:1 3098:1 3747:1 3924:1 3979:1 4006:1 4121:1 4350:1 4783:1 5011:1 5655:1 5710:1 5968:1 6240:1 6287:1 6430:1 6831:1 6860:1 6861:1 7378:1 8999:1 10217:1 10347:1 11574:1 11768:1 13775:1 #
0.003154841018321794410966818489328 3:1 6:1 7:1 9:1 11:1 15:1 17:1 21:1 22:1 27:1 31:1 32:1 33:1 34:1 37:1 38:1 41:1 42:1 45:1 48:1 51:1 54:1 57:1 59:1 61:1 65:1 68:1 70:1 76:1 77:1 80:1 82:1 83:1 85:1 88:1 89:1 90:1 91:1 92:1 97:1 100:1 104:1 106:1 107:1 114:1 115:1 117:1 137:1 140:1 141:1 153:1 157:1 158:1 159:1 163:1 166:1 169:1 180:1 183:1 200:1 208:1 219:1 226:1 227:1 229:1 231:1 234:1 235:1 255:1 257:1 258:1 262:1 263:1 264:1 265:1 271:1 275:1 282:1 283:1 287:1 297:1 298:1 299:1 300:1 301:1 304:1 309:1 310:1 317:1 327:1 329:1 338:1 339:1 340:1 341:1 362:1 363:1 386:1 395:1 396:1 397:1 402:1 407:1 418:1 429:1 446:1 457:1 459:1 462:1 463:1 464:1 471:1 474:1 477:1 478:1 488:1 510:1 519:1 528:1 552:1 558:1 562:1 569:1 571:1 574:1 575:1 580:1 590:1 599:1 610:1 612:1 613:1 645:1 654:1 658:1 661:1 664:1 692:1 698:1 702:1 705:1 709:1 722:1 728:1 733:1 737:1 746:1 752:1 753:1 761:1 763:1 766:1 859:1 910:1 911:1 912:1 922:1 933:1 968:1 973:1 974:1 975:1 990:1 998:1 1027:1 1028:1 1033:1 1049:1 1077:1 1085:1 1095:1 1096:1 1110:1 1132:1 1134:1 1187:1 1228:1 1309:1 1312:1 1336:1 1342:1 1372:1 1378:1 1385:1 1390:1 1399:1 1410:1 1432:1 1443:1 1486:1 1495:1 1548:1 1568:1 1642:1 1645:1 1656:1 1665:1 1669:1 1700:1 1715:1 1751:1 1755:1 1777:1 1800:1 1837:1 1838:1 1860:1 1999:1 2002:1 2017:1 2038:1 2049:1 2084:1 2166:1 2219:1 2251:1 2284:1 2285:1 2348:1 2349:1 2352:1 2380:1 2415:1 2427:1 2455:1 2470:1 2508:1 2514:1 2615:1 2633:1 2800:1 2810:1 2835:1 2848:1 2901:1 2912:1 2942:1 2964:1 2996:1 3195:1 3281:1 3327:1 3349:1 3455:1 3577:1 3764:1 3909:1 3910:1 3933:1 4121:1 4149:1 4209:1 4245:1 4411:1 4557:1 4569:1 4610:1 4733:1 4841:1 4858:1 5271:1 5382:1 5496:1 5681:1 5784:1 5846:1 5895:1 6052:1 6186:1 6226:1 6285:1 6286:1 6342:1 6464:1 6727:1 6832:1 7043:1 7102:1 7103:1 7247:1 7378:1 7393:1 7666:1 7807:1 7829:1 8437:1 8525:1 8566:1 8620:1 8658:1 8907:1 9267:1 9327:1 9440:1 9668:1 9862:1 9863:1 10020:1 10262:1 10417:1 10550:1 11327:1 11370:1 12055:1 12056:1 12057:1 12058:1 12059:1 12060:1 12061:1 12062:1 12063:1 #
0.003154841018321794410966818489328 3:1 6:1 9:1 10:1 11:1 13:1 14:1 15:1 17:1 21:1 27:1 31:1 32:1 33:1 35:1 37:1 38:1 41:1 42:1 45:1 46:1 48:1 51:1 54:1 57:1 61:1 65:1 66:1 68:1 76:1 77:1 80:1 82:1 83:1 84:1 85:1 88:1 89:1 90:1 91:1 95:1 96:1 97:1 99:1 100:1 104:1 106:1 107:1 109:1 110:1 115:1 116:1 118:1 132:1 140:1 141:1 150:1 157:1 158:1 163:1 169:1 175:1 176:1 180:1 183:1 200:1 202:1 208:1 221:1 226:1 229:1 231:1 232:1 235:1 261:1 262:1 263:1 271:1 274:1 275:1 277:1 282:1 287:1 290:1 301:1 309:1 316:1 327:1 342:1 347:1 360:1 362:1 365:1 369:1 372:1 386:1 395:1 401:1 402:1 403:1 431:1 446:1 454:1 460:1 463:1 470:1 474:1 477:1 482:1 489:1 495:1 501:1 507:1 528:1 531:1 533:1 555:1 562:1 563:1 568:1 574:1 590:1 597:1 604:1 606:1 610:1 631:1 654:1 658:1 665:1 690:1 697:1 702:1 721:1 733:1 735:1 752:1 763:1 781:1 785:1 787:1 820:1 822:1 825:1 827:1 828:1 847:1 852:1 887:1 894:1 910:1 922:1 926:1 933:1 935:1 958:1 989:1 990:1 992:1 996:1 1033:1 1034:1 1061:1 1062:1 1090:1 1095:1 1110:1 1120:1 1134:1 1140:1 1144:1 1154:1 1177:1 1182:1 1184:1 1207:1 1302:1 1332:1 1361:1 1366:1 1372:1 1378:1 1393:1 1396:1 1398:1 1406:1 1432:1 1448:1 1452:1 1486:1 1489:1 1493:1 1495:1 1627:1 1628:1 1693:1 1700:1 1714:1 1766:1 1775:1 1797:1 1818:1 1821:1 1844:1 1902:1 1934:1 1947:1 2007:1 2050:1 2099:1 2101:1 2123:1 2166:1 2224:1 2245:1 2263:1 2267:1 2284:1 2297:1 2309:1 2327:1 2363:1 2407:1 2436:1 2445:1 2452:1 2498:1 2508:1 2548:1 2556:1 2559:1 2611:1 2622:1 2661:1 2689:1 2709:1 2766:1 2802:1 2810:1 2850:1 2917:1 2923:1 3022:1 3070:1 3138:1 3188:1 3189:1 3200:1 3546:1 3553:1 3574:1 3587:1 3618:1 3634:1 3635:1 3875:1 3924:1 4000:1 4027:1 4044:1 4097:1 4152:1 4232:1 4247:1 4389:1 4552:1 4561:1 4564:1 4573:1 4574:1 4691:1 4736:1 4825:1 4972:1 5177:1 5204:1 5208:1 5255:1 5430:1 5494:1 5601:1 5602:1 5800:1 6050:1 6094:1 6128:1 6315:1 6332:1 6959:1 7548:1 7583:1 7801:1 7907:1 7934:1 8005:1 9141:1 9571:1 10408:1 10417:1 10486:1 10573:1 10574:1 10575:1 10576:1 10577:1 #
0.003154841018321794410966818489328 1:1 3:1 6:1 9:1 11:1 15:1 17:1 21:1 22:1 24:1 27:1 31:1 32:1 33:1 35:1 36:1 37:1 38:1 42:1 45:1 48:1 51:1 54:1 55:1 57:1 61:1 63:1 65:1 68:1 70:1 76:1 77:1 80:1 81:1 90:1 99:1 100:1 105:1 106:1 107:1 109:1 110:1 114:1 115:1 117:1 118:1 119:1 129:1 132:1 140:1 141:1 153:1 157:1 169:1 173:1 176:1 183:1 196:1 204:1 208:1 209:1 216:1 221:1 222:1 224:1 226:1 227:1 231:1 234:1 235:1 255:1 260:1 263:1 265:1 268:1 271:1 275:1 282:1 283:1 287:1 297:1 298:1 300:1 301:1 308:1 311:1 317:1 327:1 338:1 340:1 358:1 362:1 372:1 388:1 390:1 395:1 396:1 397:1 401:1 402:1 413:1 418:1 429:1 446:1 470:1 471:1 474:1 477:1 487:1 488:1 495:1 498:1 501:1 526:1 532:1 536:1 551:1 558:1 559:1 567:1 568:1 574:1 579:1 587:1 589:1 590:1 599:1 601:1 604:1 608:1 610:1 620:1 629:1 631:1 642:1 644:1 658:1 659:1 680:1 702:1 708:1 721:1 733:1 735:1 757:1 760:1 761:1 763:1 777:1 784:1 806:1 807:1 820:1 839:1 862:1 895:1 922:1 933:1 937:1 966:1 973:1 975:1 976:1 998:1 1011:1 1024:1 1026:1 1039:1 1046:1 1049:1 1072:1 1077:1 1082:1 1090:1 1093:1 1095:1 1102:1 1165:1 1189:1 1193:1 1261:1 1272:1 1294:1 1313:1 1319:1 1370:1 1372:1 1378:1 1407:1 1432:1 1452:1 1482:1 1507:1 1516:1 1547:1 1628:1 1661:1 1669:1 1755:1 1777:1 1779:1 1789:1 1800:1 1849:1 1860:1 1865:1 1896:1 1984:1 2013:1 2223:1 2270:1 2315:1 2320:1 2352:1 2364:1 2379:1 2380:1 2415:1 2511:1 2520:1 2582:1 2615:1 2652:1 2659:1 2699:1 2780:1 2804:1 2815:1 2848:1 2919:1 2921:1 2923:1 2942:1 2946:1 2962:1 2996:1 3059:1 3060:1 3276:1 3278:1 3362:1 3455:1 3459:1 3482:1 3491:1 3526:1 3539:1 3548:1 3574:1 3587:1 3736:1 3737:1 3842:1 3919:1 4026:1 4098:1 4240:1 4245:1 4260:1 4289:1 4351:1 4355:1 4545:1 4562:1 4662:1 4775:1 4792:1 5011:1 5360:1 5493:1 5582:1 5674:1 5684:1 5695:1 5698:1 5745:1 5748:1 5793:1 5841:1 5880:1 5895:1 5913:1 5968:1 6018:1 6095:1 6655:1 6672:1 7053:1 7221:1 7415:1 7547:1 7934:1 7941:1 7962:1 8166:1 8353:1 8512:1 8632:1 8687:1 8700:1 8784:1 8877:1 9527:1 9871:1 9908:1 10262:1 10577:1 10809:1 11169:1 11403:1 11921:1 12163:1 12201:1 12628:1 12876:1 13763:1 13764:1 #
-0.003154841018321794410966818489328 42:1 45:1 51:1 57:1 80:1 99:1 105:1 110:1 226:1 231:1 234:1 327:1 470:1 751:1 1090:1 2017:1 11073:1 11624:1 #
-0.0014906330777250255230359510250082 6:1 7:1 9:1 11:1 15:1 17:1 21:1 27:1 32:1 33:1 35:1 37:1 38:1 42:1 45:1 46:1 51:1 57:1 61:1 68:1 76:1 80:1 82:1 85:1 88:1 90:1 99:1 107:1 109:1 110:1 117:1 120:1 123:1 129:1 134:1 137:1 140:1 169:1 226:1 229:1 262:1 263:1 265:1 271:1 277:1 282:1 295:1 300:1 309:1 311:1 360:1 362:1 375:1 386:1 402:1 407:1 429:1 432:1 470:1 510:1 513:1 532:1 556:1 563:1 566:1 646:1 648:1 658:1 664:1 709:1 711:1 787:1 876:1 883:1 912:1 921:1 998:1 1027:1 1091:1 1176:1 1495:1 1516:1 1526:1 1556:1 1650:1 1670:1 1700:1 1858:1 1921:1 2166:1 2170:1 2410:1 2411:1 2415:1 2490:1 2696:1 2962:1 3168:1 3191:1 3198:1 3573:1 3784:1 3980:1 3994:1 4232:1 4245:1 4482:1 4688:1 4872:1 5131:1 5636:1 7006:1 7605:1 9951:1 10112:1 11075:1 11317:1 12716:1 13539:1 #
-0.003154841018321794410966818489328 9:1 11:1 15:1 17:1 21:1 27:1 33:1 36:1 37:1 42:1 45:1 46:1 48:1 51:1 54:1 57:1 61:1 65:1 68:1 70:1 80:1 85:1 88:1 90:1 92:1 100:1 110:1 113:1 120:1 122:1 132:1 141:1 150:1 169:1 173:1 175:1 176:1 183:1 208:1 226:1 231:1 234:1 263:1 264:1 271:1 287:1 297:1 298:1 317:1 326:1 362:1 369:1 373:1 389:1 397:1 402:1 404:1 420:1 440:1 454:1 497:1 498:1 507:1 508:1 521:1 551:1 650:1 658:1 682:1 687:1 702:1 721:1 757:1 825:1 839:1 908:1 929:1 959:1 973:1 1049:1 1067:1 1073:1 1095:1 1199:1 1485:1 1507:1 1513:1 1550:1 1696:1 1710:1 1715:1 1751:1 1779:1 1938:1 1960:1 2027:1 2133:1 2179:1 2291:1 2312:1 2380:1 2396:1 2448:1 2527:1 2580:1 2650:1 2757:1 2793:1 2815:1 2924:1 3008:1 3026:1 3027:1 3072:1 3126:1 3446:1 4125:1 4231:1 4467:1 4492:1 4575:1 4834:1 4835:1 4841:1 4908:1 5270:1 5299:1 5363:1 5911:1 6424:1 6438:1 6896:1 7093:1 7145:1 7285:1 7396:1 7975:1 8853:1 9409:1 9487:1 9995:1 10388:1 11513:1 11932:1 12008:1 12145:1 13164:1 13848:1 14106:1 14508:1 14509:1 #
-0.003154841018321794410966818489328 6:1 9:1 11:1 15:1 17:1 21:1 27:1 31:1 33:1 37:1 42:1 45:1 48:1 51:1 57:1 61:1 62:1 65:1 66:1 68:1 77:1 80:1 100:1 103:1 104:1 107:1 110:1 111:1 114:1 115:1 118:1 141:1 166:1 175:1 180:1 200:1 208:1 231:1 232:1 257:1 262:1 271:1 283:1 287:1 290:1 298:1 310:1 327:1 388:1 390:1 393:1 396:1 405:1 432:1 460:1 474:1 477:1 501:1 519:1 535:1 544:1 572:1 610:1 734:1 760:1 773:1 794:1 806:1 859:1 862:1 952:1 973:1 1090:1 1191:1 1301:1 1364:1 1420:1 1641:1 1718:1 1857:1 1907:1 1984:1 2002:1 2019:1 2023:1 2216:1 2250:1 2284:1 2291:1 2432:1 2436:1 2710:1 2798:1 3349:1 3525:1 3570:1 3609:1 3632:1 3659:1 3670:1 4000:1 4351:1 4554:1 4991:1 5245:1 5670:1 5696:1 6106:1 6215:1 6228:1 6813:1 7010:1 7790:1 8444:1 8755:1 8934:1 9172:1 9195:1 9294:1 11639:1 11841:1 12875:1 13128:1 13274:1 14477:1 14478:1 #
-0.003154841018321794410966818489328 3:1 6:1 9:1 11:1 14:1 15:1 17:1 21:1 22:1 27:1 31:1 33:1 37:1 42:1 45:1 51:1 54:1 57:1 61:1 65:1 66:1 68:1 80:1 81:1 84:1 85:1 88:1 90:1 95:1 100:1 106:1 107:1 109:1 110:1 117:1 118:1 120:1 129:1 132:1 137:1 141:1 150:1 157:1 169:1 173:1 183:1 208:1 221:1 229:1 231:1 232:1 233:1 285:1 287:1 295:1 301:1 304:1 308:1 316:1 317:1 321:1 328:1 364:1 369:1 401:1 402:1 407:1 447:1 471:1 485:1 498:1 507:1 512:1 513:1 536:1 569:1 579:1 604:1 644:1 646:1 654:1 763:1 776:1 783:1 784:1 789:1 847:1 853:1 887:1 968:1 975:1 991:1 1016:1 1060:1 1094:1 1095:1 1134:1 1139:1 1147:1 1304:1 1330:1 1335:1 1391:1 1406:1 1497:1 1610:1 1614:1 1651:1 1684:1 1704:1 1710:1 1730:1 1736:1 1811:1 1812:1 1814:1 1818:1 1824:1 1857:1 1924:1 1987:1 1992:1 2019:1 2082:1 2263:1 2327:1 2336:1 2342:1 2455:1 2460:1 2480:1 2491:1 2583:1 2691:1 2815:1 2866:1 2906:1 3153:1 3154:1 3162:1 3227:1 3341:1 3698:1 3814:1 3842:1 3871:1 4144:1 4163:1 4172:1 4175:1 4298:1 4467:1 4641:1 4689:1 4690:1 4936:1 5163:1 5272:1 5431:1 6159:1 6427:1 6452:1 6562:1 6584:1 6732:1 6761:1 6790:1 7016:1 7105:1 7327:1 7533:1 7729:1 8307:1 8333:1 8554:1 8684:1 9106:1 9199:1 9380:1 9402:1 9403:1 9437:1 9469:1 9513:1 10095:1 10567:1 10853:1 10857:1 10948:1 10951:1 11107:1 11108:1 11133:1 11392:1 11443:1 11879:1 12602:1 13260:1 13777:1 14435:1 #
0.00012163741999966865762854151267192 2:1 3:1 5:1 6:1 7:1 9:1 11:1 13:1 14:1 15:1 17:1 21:1 22:1 27:1 31:1 32:1 33:1 35:1 37:1 38:1 42:1 45:1 46:1 47:1 48:1 51:1 54:1 57:1 59:1 60:1 61:1 65:1 66:1 68:1 70:1 74:1 77:1 80:1 81:1 82:1 83:1 87:1 89:1 91:1 94:1 99:1 100:1 103:1 106:1 107:1 109:1 110:1 111:1 114:1 115:1 118:1 120:1 132:1 134:1 138:1 140:1 143:1 144:1 149:1 150:1 159:1 163:1 165:1 166:1 169:1 173:1 175:1 176:1 180:1 183:1 188:1 200:1 208:1 221:1 224:1 226:1 227:1 231:1 233:1 237:1 239:1 241:1 244:1 247:1 255:1 256:1 258:1 260:1 262:1 271:1 274:1 275:1 282:1 287:1 290:1 293:1 297:1 298:1 299:1 300:1 301:1 305:1 308:1 310:1 311:1 317:1 327:1 338:1 341:1 344:1 347:1 360:1 362:1 367:1 368:1 369:1 383:1 384:1 388:1 389:1 390:1 397:1 401:1 402:1 403:1 407:1 412:1 418:1 420:1 425:1 431:1 435:1 466:1 467:1 470:1 474:1 477:1 478:1 488:1 489:1 498:1 501:1 507:1 512:1 518:1 519:1 521:1 531:1 536:1 545:1 551:1 552:1 558:1 567:1 568:1 572:1 575:1 576:1 579:1 586:1 589:1 590:1 597:1 599:1 606:1 610:1 626:1 631:1 644:1 646:1 649:1 658:1 659:1 680:1 682:1 691:1 692:1 702:1 709:1 721:1 733:1 735:1 743:1 749:1 756:1 758:1 769:1 779:1 782:1 784:1 797:1 822:1 839:1 859:1 882:1 887:1 897:1 899:1 901:1 906:1 912:1 919:1 926:1 938:1 958:1 973:1 989:1 996:1 1004:1 1039:1 1040:1 1045:1 1049:1 1061:1 1070:1 1077:1 1091:1 1095:1 1110:1 1137:1 1140:1 1163:1 1198:1 1208:1 1228:1 1243:1 1257:1 1313:1 1316:1 1319:1 1372:1 1399:1 1407:1 1410:1 1420:1 1432:1 1433:1 1446:1 1462:1 1464:1 1472:1 1475:1 1479:1 1485:1 1486:1 1490:1 1495:1 1500:1 1507:1 1534:1 1537:1 1540:1 1547:1 1561:1 1562:1 1568:1 1636:1 1642:1 1645:1 1681:1 1710:1 1726:1 1737:1 1740:1 1743:1 1754:1 1759:1 1782:1 1844:1 1851:1 1852:1 1933:1 1951:1 1992:1 2017:1 2032:1 2037:1 2063:1 2091:1 2093:1 2107:1 2171:1 2207:1 2220:1 2230:1 2256:1 2284:1 2293:1 2314:1 2316:1 2327:1 2351:1 2373:1 2382:1 2396:1 2452:1 2455:1 2458:1 2490:1 2511:1 2524:1 2545:1 2549:1 2551:1 2585:1 2650:1 2682:1 2691:1 2692:1 2710:1 2715:1 2757:1 2816:1 2832:1 2899:1 2922:1 2958:1 2965:1 2983:1 2996:1 2999:1 3000:1 3030:1 3034:1 3130:1 3141:1 3234:1 3307:1 3324:1 3363:1 3370:1 3371:1 3387:1 3391:1 3404:1 3455:1 3456:1 3492:1 3558:1 3625:1 3676:1 3716:1 3802:1 3860:1 3872:1 3917:1 3986:1 4021:1 4054:1 4093:1 4152:1 4165:1 4285:1 4463:1 4567:1 4641:1 4688:1 4706:1 4736:1 4771:1 4945:1 5145:1 5152:1 5582:1 5585:1 5661:1 5734:1 5842:1 5869:1 5885:1 5886:1 6273:1 6442:1 6516:1 6699:1 6836:1 6867:1 6925:1 7479:1 7590:1 7787:1 7854:1 8060:1 8125:1 8784:1 8832:1 9168:1 9471:1 9688:1 9915:1 9916:1 9917:1 9918:1 9919:1 9920:1 9921:1 9922:1 9923:1 9924:1 9925:1 9926:1 9927:1 9928:1 #
-0.0021780266767394149476921860753009 6:1 9:1 11:1 17:1 21:1 22:1 27:1 31:1 32:1 33:1 36:1 37:1 38:1 39:1 41:1 42:1 45:1 46:1 48:1 51:1 54:1 57:1 61:1 63:1 65:1 68:1 76:1 77:1 80:1 81:1 82:1 83:1 85:1 88:1 90:1 91:1 92:1 99:1 100:1 102:1 103:1 104:1 106:1 107:1 109:1 110:1 111:1 114:1 115:1 117:1 118:1 129:1 132:1 134:1 141:1 143:1 146:1 150:1 157:1 159:1 163:1 165:1 169:1 173:1 176:1 180:1 183:1 195:1 199:1 200:1 208:1 209:1 216:1 226:1 228:1 232:1 234:1 235:1 244:1 265:1 271:1 275:1 282:1 287:1 292:1 295:1 297:1 298:1 299:1 301:1 305:1 308:1 310:1 322:1 326:1 327:1 329:1 352:1 362:1 365:1 369:1 372:1 386:1 387:1 388:1 389:1 395:1 397:1 401:1 403:1 420:1 474:1 477:1 478:1 481:1 498:1 505:1 507:1 532:1 535:1 537:1 558:1 561:1 563:1 565:1 569:1 597:1 599:1 612:1 617:1 626:1 642:1 643:1 645:1 649:1 658:1 659:1 702:1 733:1 735:1 745:1 748:1 752:1 758:1 761:1 763:1 780:1 794:1 795:1 801:1 820:1 838:1 853:1 863:1 865:1 887:1 897:1 900:1 922:1 946:1 952:1 973:1 974:1 990:1 994:1 1001:1 1026:1 1033:1 1046:1 1090:1 1091:1 1132:1 1133:1 1134:1 1138:1 1226:1 1237:1 1239:1 1256:1 1283:1 1287:1 1294:1 1360:1 1366:1 1372:1 1378:1 1396:1 1432:1 1450:1 1475:1 1485:1 1486:1 1489:1 1568:1 1627:1 1709:1 1736:1 1737:1 1776:1 1799:1 1804:1 1843:1 1884:1 1938:1 1941:1 1960:1 2013:1 2062:1 2099:1 2166:1 2177:1 2270:1 2291:1 2327:1 2354:1 2366:1 2367:1 2368:1 2382:1 2398:1 2459:1 2464:1 2484:1 2495:1 2626:1 2659:1 2755:1 2756:1 2816:1 2850:1 2923:1 2927:1 2938:1 2958:1 3105:1 3106:1 3132:1 3176:1 3191:1 3203:1 3207:1 3306:1 3427:1 3504:1 3546:1 3548:1 3621:1 3622:1 3700:1 3716:1 3732:1 3987:1 4027:1 4060:1 4099:1 4117:1 4147:1 4161:1 4165:1 4192:1 4488:1 4564:1 4567:1 4577:1 4593:1 4620:1 4626:1 4692:1 4701:1 4829:1 4909:1 4923:1 4965:1 5134:1 5213:1 5324:1 5448:1 5458:1 5578:1 5742:1 5762:1 5854:1 5960:1 6175:1 6448:1 6500:1 6589:1 6638:1 6665:1 6858:1 7065:1 7103:1 7244:1 7377:1 7559:1 7645:1 7820:1 8115:1 8146:1 8791:1 8803:1 8813:1 8831:1 8872:1 8945:1 9019:1 9037:1 9239:1 9391:1 9485:1 9608:1 9773:1 10105:1 10153:1 10403:1 10467:1 10654:1 10655:1 10764:1 10790:1 11312:1 11665:1 12062:1 12387:1 12461:1 12797:1 13065:1 13577:1 13671:1 13774:1 13864:1 13867:1 14113:1 14234:1 14820:1 14872:1 #
0.0015656106456922215270505249762323 3:1 6:1 7:1 9:1 11:1 13:1 14:1 15:1 17:1 21:1 24:1 27:1 31:1 33:1 34:1 35:1 36:1 37:1 38:1 42:1 45:1 46:1 48:1 51:1 54:1 57:1 61:1 63:1 65:1 66:1 68:1 70:1 73:1 76:1 77:1 80:1 82:1 84:1 85:1 88:1 89:1 90:1 91:1 92:1 96:1 97:1 99:1 100:1 103:1 104:1 106:1 107:1 109:1 110:1 114:1 115:1 117:1 118:1 123:1 129:1 130:1 132:1 134:1 137:1 138:1 141:1 144:1 146:1 150:1 163:1 166:1 169:1 173:1 175:1 176:1 179:1 180:1 182:1 183:1 200:1 208:1 224:1 226:1 227:1 230:1 231:1 232:1 234:1 235:1 236:1 237:1 239:1 241:1 255:1 256:1 258:1 261:1 262:1 263:1 265:1 268:1 271:1 274:1 275:1 277:1 280:1 283:1 287:1 288:1 298:1 300:1 304:1 310:1 311:1 316:1 317:1 322:1 323:1 326:1 327:1 341:1 347:1 349:1 350:1 362:1 367:1 369:1 377:1 385:1 386:1 390:1 393:1 397:1 401:1 402:1 403:1 404:1 407:1 412:1 413:1 418:1 420:1 429:1 431:1 439:1 446:1 453:1 454:1 463:1 464:1 469:1 474:1 477:1 487:1 491:1 495:1 498:1 501:1 502:1 504:1 505:1 507:1 521:1 531:1 532:1 534:1 536:1 537:1 542:1 558:1 559:1 563:1 564:1 568:1 569:1 571:1 578:1 579:1 590:1 596:1 604:1 607:1 610:1 615:1 626:1 631:1 634:1 635:1 637:1 638:1 641:1 642:1 646:1 654:1 656:1 657:1 658:1 659:1 669:1 688:1 689:1 692:1 694:1 702:1 721:1 724:1 725:1 735:1 737:1 752:1 762:1 763:1 766:1 771:1 783:1 785:1 797:1 798:1 813:1 820:1 822:1 832:1 854:1 861:1 868:1 887:1 894:1 906:1 908:1 910:1 912:1 919:1 922:1 926:1 933:1 951:1 958:1 965:1 966:1 968:1 970:1 972:1 977:1 990:1 996:1 998:1 1049:1 1061:1 1062:1 1076:1 1077:1 1086:1 1090:1 1091:1 1095:1 1131:1 1134:1 1144:1 1150:1 1154:1 1164:1 1178:1 1187:1 1188:1 1199:1 1202:1 1208:1 1226:1 1228:1 1236:1 1243:1 1253:1 1257:1 1261:1 1265:1 1266:1 1268:1 1273:1 1294:1 1319:1 1328:1 1335:1 1336:1 1338:1 1340:1 1352:1 1357:1 1370:1 1372:1 1378:1 1386:1 1390:1 1399:1 1401:1 1410:1 1424:1 1432:1 1443:1 1448:1 1451:1 1452:1 1455:1 1465:1 1472:1 1494:1 1498:1 1501:1 1502:1 1510:1 1534:1 1539:1 1540:1 1555:1 1561:1 1580:1 1583:1 1604:1 1605:1 1609:1 1629:1 1633:1 1634:1 1636:1 1645:1 1647:1 1661:1 1676:1 1681:1 1684:1 1690:1 1692:1 1693:1 1696:1 1710:1 1731:1 1737:1 1749:1 1754:1 1755:1 1761:1 1766:1 1775:1 1779:1 1790:1 1843:1 1853:1 1865:1 1881:1 1926:1 1934:1 1938:1 1952:1 1973:1 1983:1 1985:1 1999:1 2008:1 2017:1 2032:1 2063:1 2065:1 2066:1 2078:1 2098:1 2099:1 2101:1 2108:1 2137:1 2146:1 2150:1 2153:1 2174:1 2186:1 2207:1 2284:1 2288:1 2297:1 2309:1 2320:1 2323:1 2329:1 2332:1 2333:1 2396:1 2415:1 2434:1 2436:1 2463:1 2501:1 2508:1 2519:1 2521:1 2528:1 2532:1 2541:1 2548:1 2549:1 2580:1 2585:1 2588:1 2594:1 2597:1 2639:1 2648:1 2653:1 2668:1 2689:1 2702:1 2712:1 2774:1 2816:1 2864:1 2934:1 2956:1 2965:1 2980:1 2996:1 3014:1 3061:1 3105:1 3120:1 3129:1 3137:1 3151:1 3161:1 3189:1 3230:1 3239:1 3240:1 3247:1 3349:1 3362:1 3381:1 3402:1 3411:1 3424:1 3572:1 3612:1 3656:1 3716:1 3739:1 3779:1 3792:1 3844:1 3865:1 3878:1 3883:1 3909:1 3911:1 3917:1 3922:1 3925:1 3927:1 3928:1 3930:1 3933:1 3955:1 3958:1 3995:1 4014:1 4031:1 4032:1 4050:1 4093:1 4117:1 4121:1 4144:1 4222:1 4337:1 4354:1 4355:1 4383:1 4445:1 4448:1 4469:1 4496:1 4504:1 4557:1 4567:1 4606:1 4654:1 4699:1 4707:1 4762:1 4783:1 4827:1 4857:1 4858:1 4865:1 4917:1 4942:1 4951:1 4976:1 4982:1 5000:1 5025:1 5037:1 5068:1 5078:1 5095:1 5153:1 5188:1 5199:1 5201:1 5226:1 5348:1 5406:1 5407:1 5432:1 5500:1 5504:1 5513:1 5519:1 5526:1 5550:1 5551:1 5617:1 5685:1 5688:1 5731:1 5737:1 5841:1 5854:1 5972:1 5979:1 6055:1 6060:1 6113:1 6132:1 6166:1 6180:1 6222:1 6229:1 6239:1 6245:1 6288:1 6488:1 6526:1 6592:1 6612:1 6623:1 6639:1 6675:1 6689:1 6744:1 6809:1 6912:1 6935:1 6983:1 6988:1 7160:1 7221:1 7223:1 7244:1 7269:1 7283:1 7284:1 7319:1 7357:1 7389:1 7626:1 7634:1 7710:1 7714:1 7740:1 7803:1 7815:1 7818:1 7840:1 7905:1 7906:1 7955:1 8039:1 8061:1 8106:1 8279:1 8303:1 8497:1 8691:1 8966:1 9040:1 9158:1 9205:1 9255:1 9264:1 9359:1 9377:1 9598:1 9648:1 9663:1 9740:1 9932:1 9944:1 10019:1 10204:1 10231:1 10250:1 10297:1 10365:1 10367:1 10368:1 10369:1 10370:1 10375:1 10399:1 10633:1 10859:1 10986:1 11153:1 11284:1 11397:1 11489:1 11644:1 11831:1 11877:1 12459:1 12482:1 12601:1 12687:1 13282:1 13283:1 13284:1 13285:1 13286:1 13287:1 #
-0.0021813450130792524234157880869134 3:1 9:1 11:1 13:1 14:1 15:1 17:1 21:1 22:1 25:1 27:1 31:1 32:1 33:1 34:1 37:1 38:1 42:1 45:1 48:1 50:1 51:1 54:1 57:1 61:1 63:1 65:1 66:1 68:1 77:1 80:1 82:1 83:1 85:1 88:1 90:1 100:1 106:1 107:1 109:1 110:1 111:1 115:1 117:1 119:1 131:1 132:1 137:1 140:1 141:1 143:1 146:1 160:1 163:1 169:1 171:1 173:1 180:1 183:1 196:1 199:1 200:1 202:1 208:1 210:1 216:1 221:1 226:1 227:1 231:1 234:1 237:1 239:1 244:1 255:1 256:1 263:1 265:1 271:1 274:1 275:1 283:1 287:1 295:1 301:1 317:1 322:1 327:1 329:1 347:1 362:1 363:1 367:1 369:1 386:1 388:1 390:1 403:1 407:1 432:1 435:1 446:1 470:1 498:1 501:1 505:1 509:1 510:1 535:1 562:1 563:1 575:1 585:1 599:1 610:1 616:1 621:1 626:1 642:1 646:1 658:1 660:1 695:1 702:1 704:1 708:1 735:1 736:1 751:1 752:1 761:1 763:1 820:1 822:1 857:1 919:1 922:1 952:1 958:1 968:1 971:1 1033:1 1077:1 1090:1 1113:1 1218:1 1228:1 1260:1 1346:1 1372:1 1399:1 1410:1 1432:1 1545:1 1568:1 1661:1 1681:1 1695:1 1804:1 1806:1 1955:1 2003:1 2006:1 2017:1 2099:1 2122:1 2159:1 2171:1 2172:1 2208:1 2232:1 2292:1 2472:1 2490:1 2650:1 2800:1 2846:1 2918:1 2923:1 2942:1 2964:1 3060:1 3161:1 3572:1 3643:1 3825:1 4029:1 4130:1 4245:1 4323:1 4383:1 4471:1 4699:1 4701:1 4722:1 5113:1 5265:1 5294:1 6152:1 6170:1 6222:1 6296:1 7188:1 7362:1 7652:1 7949:1 8008:1 8271:1 8724:1 9054:1 10369:1 10370:1 11812:1 12507:1 13142:1 13266:1 13317:1 13621:1 14199:1 14201:1 14946:1 #
-0.0017124888037007230182084960290467 3:1 6:1 7:1 9:1 11:1 13:1 14:1 15:1 17:1 21:1 22:1 25:1 27:1 31:1 32:1 33:1 36:1 37:1 38:1 41:1 42:1 45:1 46:1 48:1 51:1 54:1 55:1 57:1 58:1 61:1 63:1 65:1 70:1 76:1 77:1 78:1 80:1 81:1 83:1 85:1 88:1 89:1 90:1 91:1 92:1 99:1 100:1 103:1 104:1 105:1 106:1 107:1 109:1 110:1 111:1 113:1 114:1 115:1 117:1 118:1 120:1 123:1 130:1 132:1 134:1 137:1 140:1 141:1 144:1 146:1 157:1 158:1 159:1 165:1 168:1 169:1 173:1 175:1 176:1 180:1 182:1 183:1 196:1 200:1 208:1 221:1 222:1 226:1 228:1 231:1 232:1 234:1 235:1 239:1 241:1 244:1 255:1 258:1 261:1 262:1 263:1 265:1 268:1 271:1 274:1 275:1 282:1 283:1 287:1 288:1 290:1 292:1 297:1 299:1 300:1 310:1 316:1 317:1 323:1 327:1 329:1 340:1 362:1 369:1 383:1 388:1 390:1 395:1 396:1 397:1 402:1 403:1 407:1 429:1 432:1 446:1 447:1 463:1 465:1 470:1 471:1 474:1 488:1 490:1 501:1 503:1 507:1 510:1 519:1 531:1 536:1 552:1 555:1 558:1 563:1 567:1 571:1 574:1 575:1 585:1 586:1 590:1 595:1 596:1 597:1 601:1 604:1 613:1 621:1 626:1 632:1 642:1 644:1 645:1 655:1 658:1 659:1 680:1 701:1 702:1 707:1 708:1 719:1 721:1 727:1 733:1 763:1 794:1 795:1 820:1 857:1 887:1 905:1 908:1 922:1 933:1 958:1 971:1 972:1 974:1 975:1 990:1 1000:1 1029:1 1049:1 1062:1 1096:1 1103:1 1134:1 1162:1 1198:1 1223:1 1228:1 1243:1 1285:1 1312:1 1318:1 1368:1 1395:1 1420:1 1451:1 1456:1 1488:1 1489:1 1502:1 1504:1 1553:1 1568:1 1571:1 1628:1 1665:1 1671:1 1696:1 1700:1 1706:1 1736:1 1751:1 1799:1 1872:1 1983:1 1997:1 2002:1 2003:1 2019:1 2029:1 2047:1 2050:1 2051:1 2068:1 2099:1 2127:1 2166:1 2193:1 2230:1 2235:1 2239:1 2247:1 2287:1 2327:1 2357:1 2380:1 2391:1 2398:1 2410:1 2427:1 2435:1 2460:1 2482:1 2488:1 2508:1 2530:1 2572:1 2757:1 2801:1 2829:1 2904:1 2942:1 2962:1 3016:1 3021:1 3038:1 3061:1 3091:1 3138:1 3200:1 3281:1 3296:1 3381:1 3690:1 3714:1 3729:1 3854:1 4062:1 4101:1 4245:1 4353:1 4494:1 4557:1 4564:1 4567:1 4716:1 4729:1 4864:1 4908:1 5226:1 5308:1 5390:1 5494:1 5552:1 5710:1 5880:1 5960:1 6023:1 6132:1 6145:1 6417:1 6461:1 6754:1 6942:1 7109:1 7280:1 8009:1 8207:1 8221:1 8760:1 8763:1 9130:1 9899:1 9902:1 10555:1 10823:1 10922:1 11479:1 12991:1 13198:1 13744:1 13836:1 13858:1 13967:1 14102:1 #
-0.0025508931165664607346177383817576 1:1 3:1 6:1 7:1 9:1 11:1 13:1 14:1 15:1 17:1 19:1 21:1 22:1 27:1 31:1 32:1 33:1 34:1 35:1 36:1 37:1 38:1 41:1 42:1 43:1 45:1 46:1 47:1 48:1 51:1 54:1 57:1 58:1 59:1 61:1 63:1 65:1 66:1 67:1 68:1 70:1 76:1 77:1 78:1 80:1 81:1 82:1 83:1 85:1 88:1 89:1 90:1 91:1 92:1 95:1 96:1 99:1 100:1 101:1 102:1 103:1 105:1 106:1 107:1 108:1 109:1 110:1 111:1 112:1 114:1 115:1 117:1 119:1 123:1 129:1 130:1 131:1 132:1 134:1 137:1 140:1 141:1 143:1 144:1 146:1 150:1 155:1 157:1 158:1 159:1 165:1 166:1 168:1 169:1 173:1 175:1 176:1 180:1 183:1 185:1 200:1 204:1 206:1 208:1 209:1 216:1 221:1 224:1 226:1 227:1 229:1 231:1 232:1 233:1 234:1 235:1 236:1 237:1 239:1 242:1 244:1 247:1 255:1 262:1 263:1 265:1 268:1 271:1 274:1 275:1 277:1 287:1 288:1 290:1 292:1 297:1 298:1 300:1 301:1 302:1 304:1 308:1 309:1 310:1 311:1 314:1 317:1 321:1 323:1 325:1 327:1 329:1 338:1 341:1 347:1 358:1 359:1 360:1 362:1 383:1 385:1 388:1 389:1 390:1 395:1 397:1 398:1 400:1 401:1 402:1 403:1 404:1 419:1 426:1 429:1 435:1 454:1 456:1 457:1 462:1 463:1 466:1 468:1 470:1 471:1 474:1 476:1 477:1 478:1 480:1 482:1 484:1 487:1 488:1 498:1 501:1 507:1 509:1 520:1 527:1 528:1 531:1 532:1 536:1 537:1 551:1 552:1 554:1 555:1 558:1 562:1 563:1 566:1 568:1 569:1 572:1 574:1 575:1 576:1 579:1 583:1 585:1 586:1 596:1 597:1 599:1 604:1 610:1 612:1 613:1 621:1 626:1 636:1 640:1 646:1 648:1 654:1 658:1 659:1 662:1 684:1 688:1 692:1 697:1 699:1 702:1 708:1 721:1 728:1 735:1 740:1 741:1 745:1 746:1 748:1 757:1 758:1 760:1 761:1 763:1 766:1 772:1 775:1 783:1 798:1 799:1 805:1 820:1 822:1 828:1 830:1 834:1 837:1 852:1 853:1 854:1 860:1 865:1 866:1 871:1 872:1 883:1 887:1 893:1 896:1 901:1 902:1 910:1 921:1 922:1 923:1 930:1 933:1 958:1 971:1 973:1 975:1 990:1 1012:1 1059:1 1061:1 1062:1 1070:1 1077:1 1078:1 1086:1 1090:1 1091:1 1095:1 1096:1 1103:1 1106:1 1113:1 1120:1 1131:1 1133:1 1134:1 1139:1 1144:1 1149:1 1154:1 1159:1 1173:1 1175:1 1177:1 1178:1 1199:1 1207:1 1218:1 1219:1 1220:1 1226:1 1228:1 1230:1 1233:1 1236:1 1257:1 1261:1 1263:1 1288:1 1293:1 1302:1 1310:1 1312:1 1318:1 1345:1 1368:1 1372:1 1374:1 1375:1 1378:1 1396:1 1399:1 1407:1 1422:1 1432:1 1439:1 1446:1 1448:1 1449:1 1451:1 1462:1 1472:1 1475:1 1486:1 1489:1 1497:1 1513:1 1526:1 1534:1 1535:1 1536:1 1541:1 1553:1 1558:1 1572:1 1610:1 1628:1 1635:1 1642:1 1662:1 1665:1 1676:1 1681:1 1684:1 1694:1 1704:1 1706:1 1710:1 1715:1 1720:1 1737:1 1759:1 1768:1 1779:1 1808:1 1850:1 1855:1 1893:1 1907:1 1918:1 1940:1 1955:1 1961:1 1983:1 1998:1 1999:1 2006:1 2012:1 2013:1 2017:1 2063:1 2065:1 2068:1 2084:1 2091:1 2099:1 2163:1 2166:1 2170:1 2175:1 2186:1 2208:1 2210:1 2217:1 2224:1 2230:1 2235:1 2245:1 2304:1 2308:1 2346:1 2379:1 2380:1 2384:1 2407:1 2408:1 2436:1 2452:1 2461:1 2511:1 2513:1 2542:1 2567:1 2576:1 2633:1 2636:1 2652:1 2682:1 2689:1 2706:1 2731:1 2757:1 2765:1 2769:1 2771:1 2773:1 2777:1 2781:1 2793:1 2795:1 2796:1 2816:1 2818:1 2834:1 2844:1 2850:1 2856:1 2873:1 2885:1 2917:1 2919:1 2928:1 2938:1 2941:1 2942:1 2948:1 2958:1 2965:1 2968:1 2990:1 2992:1 2996:1 3018:1 3023:1 3059:1 3062:1 3063:1 3071:1 3072:1 3088:1 3098:1 3105:1 3112:1 3114:1 3147:1 3191:1 3200:1 3217:1 3250:1 3296:1 3346:1 3380:1 3413:1 3426:1 3494:1 3499:1 3502:1 3504:1 3528:1 3546:1 3550:1 3625:1 3634:1 3644:1 3704:1 3709:1 3737:1 3825:1 3842:1 3861:1 3883:1 3905:1 3917:1 3987:1 3994:1 4033:1 4057:1 4075:1 4082:1 4099:1 4143:1 4178:1 4228:1 4232:1 4244:1 4258:1 4269:1 4275:1 4295:1 4383:1 4485:1 4497:1 4498:1 4509:1 4543:1 4548:1 4577:1 4591:1 4598:1 4599:1 4604:1 4615:1 4633:1 4647:1 4670:1 4675:1 4676:1 4677:1 4699:1 4708:1 4733:1 4770:1 4785:1 4835:1 4838:1 4858:1 4915:1 4924:1 4951:1 4965:1 4986:1 4991:1 5108:1 5125:1 5144:1 5152:1 5208:1 5220:1 5239:1 5310:1 5329:1 5340:1 5390:1 5416:1 5492:1 5635:1 5667:1 5683:1 5702:1 5738:1 5842:1 5871:1 5913:1 5924:1 5931:1 5968:1 5972:1 6032:1 6033:1 6040:1 6130:1 6222:1 6252:1 6264:1 6284:1 6410:1 6438:1 6500:1 6588:1 6589:1 6842:1 6843:1 6864:1 6873:1 6880:1 6903:1 6938:1 7068:1 7123:1 7205:1 7210:1 7271:1 7303:1 7358:1 7378:1 7543:1 7568:1 7629:1 7777:1 7829:1 7915:1 7930:1 7972:1 8043:1 8049:1 8124:1 8267:1 8455:1 8723:1 8724:1 8749:1 8791:1 8834:1 8887:1 9174:1 9326:1 9355:1 9538:1 9701:1 9816:1 9981:1 9983:1 9988:1 10048:1 10083:1 10091:1 10182:1 10280:1 10303:1 10415:1 10418:1 10546:1 10726:1 10727:1 10843:1 11023:1 11053:1 11120:1 11164:1 11181:1 11287:1 11367:1 11535:1 11688:1 11703:1 11733:1 11778:1 11977:1 11984:1 11991:1 12197:1 12485:1 12508:1 12527:1 12586:1 12969:1 13097:1 13238:1 13350:1 13395:1 13623:1 13804:1 13858:1 13924:1 13943:1 14225:1 14257:1 14305:1 14372:1 14373:1 14374:1 14375:1 14376:1 14377:1 #
-0.0014563007764835541029552201663932 3:1 6:1 9:1 11:1 17:1 21:1 27:1 31:1 32:1 33:1 37:1 42:1 46:1 47:1 48:1 51:1 54:1 57:1 59:1 61:1 65:1 68:1 76:1 77:1 80:1 100:1 103:1 104:1 107:1 109:1 110:1 114:1 115:1 120:1 128:1 129:1 138:1 141:1 165:1 169:1 176:1 183:1 200:1 224:1 235:1 239:1 243:1 261:1 263:1 267:1 271:1 280:1 282:1 287:1 299:1 304:1 317:1 328:1 342:1 360:1 362:1 385:1 412:1 432:1 454:1 474:1 491:1 498:1 502:1 503:1 505:1 507:1 527:1 531:1 536:1 555:1 571:1 586:1 587:1 597:1 609:1 610:1 636:1 670:1 672:1 688:1 702:1 711:1 746:1 749:1 751:1 752:1 756:1 758:1 763:1 782:1 800:1 806:1 857:1 880:1 904:1 923:1 925:1 930:1 1198:1 1216:1 1226:1 1257:1 1266:1 1345:1 1348:1 1366:1 1372:1 1484:1 1568:1 1578:1 1610:1 1633:1 1650:1 1779:1 1780:1 1974:1 2010:1 2019:1 2091:1 2093:1 2145:1 2166:1 2183:1 2215:1 2226:1 2233:1 2239:1 2263:1 2309:1 2432:1 2436:1 2498:1 2594:1 2639:1 2644:1 2684:1 2695:1 2702:1 2723:1 2773:1 2844:1 2868:1 2965:1 3178:1 3179:1 3200:1 3341:1 3390:1 3400:1 3420:1 3436:1 3437:1 3438:1 3439:1 3440:1 3441:1 3855:1 3876:1 4090:1 4245:1 4351:1 4442:1 4502:1 4566:1 4771:1 4941:1 5275:1 5315:1 5335:1 5538:1 5554:1 5640:1 5680:1 5797:1 5938:1 6061:1 6276:1 6326:1 6455:1 6470:1 6525:1 6985:1 7034:1 7038:1 7167:1 7378:1 7828:1 8980:1 9874:1 10740:1 11346:1 12241:1 12287:1 12624:1 14777:1 #
-0.0026080576723850582183950042036713 3:1 6:1 9:1 11:1 13:1 14:1 15:1 17:1 21:1 22:1 25:1 27:1 28:1 33:1 35:1 36:1 37:1 38:1 41:1 42:1 45:1 46:1 48:1 51:1 54:1 57:1 59:1 61:1 65:1 67:1 68:1 70:1 76:1 77:1 80:1 82:1 83:1 84:1 85:1 88:1 89:1 90:1 91:1 92:1 95:1 96:1 97:1 99:1 100:1 102:1 103:1 104:1 106:1 107:1 108:1 109:1 110:1 111:1 114:1 115:1 117:1 118:1 119:1 120:1 123:1 129:1 130:1 131:1 132:1 140:1 141:1 143:1 150:1 153:1 157:1 159:1 163:1 165:1 166:1 169:1 173:1 175:1 176:1 179:1 180:1 182:1 183:1 200:1 208:1 216:1 217:1 219:1 221:1 224:1 226:1 227:1 231:1 232:1 235:1 237:1 255:1 256:1 262:1 263:1 268:1 270:1 271:1 274:1 275:1 277:1 282:1 287:1 288:1 292:1 297:1 298:1 300:1 303:1 304:1 305:1 308:1 310:1 316:1 317:1 323:1 327:1 328:1 341:1 347:1 352:1 353:1 358:1 362:1 364:1 369:1 386:1 388:1 390:1 391:1 395:1 397:1 398:1 401:1 402:1 403:1 412:1 413:1 420:1 435:1 444:1 446:1 459:1 463:1 464:1 468:1 470:1 471:1 474:1 478:1 491:1 497:1 498:1 501:1 505:1 506:1 507:1 515:1 519:1 533:1 536:1 538:1 555:1 558:1 561:1 563:1 564:1 566:1 571:1 572:1 573:1 575:1 586:1 587:1 590:1 596:1 599:1 610:1 616:1 626:1 631:1 636:1 641:1 642:1 643:1 644:1 649:1 654:1 655:1 656:1 658:1 664:1 678:1 692:1 708:1 716:1 724:1 737:1 748:1 752:1 763:1 766:1 772:1 813:1 847:1 852:1 853:1 877:1 894:1 895:1 905:1 908:1 909:1 911:1 912:1 916:1 922:1 929:1 933:1 942:1 943:1 944:1 949:1 958:1 963:1 965:1 968:1 974:1 976:1 977:1 980:1 986:1 995:1 996:1 1001:1 1021:1 1027:1 1028:1 1041:1 1077:1 1086:1 1095:1 1106:1 1122:1 1133:1 1134:1 1143:1 1164:1 1178:1 1187:1 1203:1 1217:1 1226:1 1239:1 1243:1 1260:1 1261:1 1265:1 1271:1 1272:1 1278:1 1288:1 1304:1 1309:1 1321:1 1330:1 1336:1 1346:1 1356:1 1368:1 1369:1 1374:1 1378:1 1399:1 1407:1 1410:1 1417:1 1435:1 1439:1 1443:1 1448:1 1468:1 1489:1 1496:1 1498:1 1501:1 1502:1 1506:1 1534:1 1540:1 1555:1 1568:1 1577:1 1583:1 1588:1 1610:1 1628:1 1629:1 1642:1 1644:1 1665:1 1676:1 1681:1 1719:1 1749:1 1754:1 1755:1 1766:1 1777:1 1779:1 1780:1 1782:1 1784:1 1785:1 1789:1 1790:1 1794:1 1818:1 1855:1 1917:1 1919:1 1921:1 1923:1 1938:1 1988:1 1997:1 1999:1 2000:1 2003:1 2006:1 2017:1 2021:1 2031:1 2047:1 2051:1 2066:1 2076:1 2083:1 2084:1 2093:1 2098:1 2099:1 2150:1 2166:1 2167:1 2236:1 2257:1 2263:1 2270:1 2284:1 2287:1 2288:1 2298:1 2299:1 2362:1 2377:1 2386:1 2434:1 2467:1 2484:1 2509:1 2511:1 2535:1 2539:1 2570:1 2581:1 2622:1 2651:1 2652:1 2689:1 2690:1 2706:1 2708:1 2709:1 2710:1 2774:1 2800:1 2802:1 2810:1 2815:1 2824:1 2852:1 2856:1 2870:1 2872:1 2934:1 2938:1 2942:1 2945:1 2965:1 2991:1 3010:1 3011:1 3049:1 3051:1 3096:1 3105:1 3128:1 3153:1 3154:1 3172:1 3194:1 3214:1 3309:1 3316:1 3432:1 3443:1 3476:1 3548:1 3558:1 3572:1 3582:1 3595:1 3612:1 3634:1 3661:1 3682:1 3701:1 3702:1 3707:1 3716:1 3737:1 3774:1 3779:1 3825:1 3860:1 3865:1 3890:1 3909:1 3926:1 3930:1 3938:1 3955:1 3956:1 3957:1 3961:1 4028:1 4038:1 4063:1 4099:1 4150:1 4153:1 4186:1 4211:1 4227:1 4242:1 4245:1 4251:1 4377:1 4382:1 4395:1 4408:1 4432:1 4433:1 4463:1 4491:1 4527:1 4684:1 4707:1 4770:1 4788:1 4790:1 4800:1 4858:1 4973:1 4982:1 4984:1 4985:1 4991:1 5006:1 5032:1 5170:1 5279:1 5329:1 5335:1 5360:1 5373:1 5456:1 5486:1 5582:1 5608:1 5613:1 5614:1 5797:1 5945:1 5968:1 6034:1 6040:1 6115:1 6145:1 6236:1 6251:1 6252:1 6314:1 6372:1 6537:1 6539:1 6592:1 6620:1 6774:1 6779:1 6785:1 6820:1 6829:1 6843:1 6911:1 6912:1 6923:1 6956:1 7064:1 7103:1 7304:1 7547:1 7557:1 7583:1 7584:1 7585:1 7590:1 7608:1 7684:1 7730:1 7779:1 7792:1 7989:1 7990:1 7998:1 8082:1 8119:1 8120:1 8202:1 8212:1 8303:1 8428:1 8455:1 8461:1 8480:1 8602:1 8632:1 8750:1 8982:1 9007:1 9215:1 9242:1 9288:1 9437:1 9466:1 9533:1 9569:1 9744:1 9760:1 9822:1 9897:1 9996:1 10050:1 10630:1 10661:1 10666:1 10823:1 10850:1 10890:1 11138:1 11472:1 11623:1 11681:1 11815:1 11920:1 12394:1 12524:1 12626:1 12648:1 12784:1 12786:1 12795:1 12809:1 12865:1 12897:1 13235:1 13285:1 13320:1 13420:1 13626:1 13803:1 13828:1 13829:1 13861:1 14039:1 14452:1 14585:1 14799:1 #
-0.0021124831003960578557077099048911 3:1 6:1 7:1 9:1 11:1 13:1 14:1 15:1 17:1 18:1 21:1 22:1 27:1 30:1 31:1 32:1 33:1 34:1 35:1 36:1 37:1 38:1 42:1 43:1 45:1 46:1 48:1 51:1 54:1 57:1 58:1 59:1 61:1 65:1 66:1 68:1 70:1 72:1 76:1 77:1 78:1 80:1 81:1 82:1 83:1 85:1 88:1 89:1 90:1 91:1 92:1 95:1 97:1 99:1 100:1 102:1 103:1 104:1 105:1 106:1 107:1 109:1 110:1 111:1 114:1 115:1 116:1 118:1 119:1 120:1 123:1 125:1 130:1 131:1 132:1 137:1 140:1 141:1 143:1 150:1 153:1 157:1 162:1 163:1 168:1 169:1 173:1 176:1 179:1 180:1 183:1 188:1 196:1 200:1 208:1 219:1 221:1 224:1 226:1 227:1 229:1 231:1 232:1 234:1 235:1 236:1 239:1 241:1 255:1 256:1 258:1 262:1 263:1 265:1 268:1 271:1 274:1 275:1 279:1 282:1 283:1 287:1 288:1 290:1 292:1 295:1 296:1 297:1 298:1 300:1 301:1 302:1 310:1 311:1 312:1 313:1 316:1 317:1 322:1 324:1 327:1 328:1 329:1 330:1 340:1 341:1 347:1 358:1 360:1 362:1 368:1 371:1 373:1 383:1 386:1 388:1 390:1 391:1 395:1 397:1 400:1 401:1 402:1 403:1 407:1 412:1 413:1 429:1 431:1 432:1 435:1 446:1 447:1 459:1 467:1 470:1 471:1 474:1 477:1 490:1 495:1 497:1 498:1 501:1 505:1 507:1 519:1 521:1 533:1 536:1 542:1 551:1 552:1 554:1 555:1 558:1 560:1 563:1 564:1 569:1 572:1 574:1 579:1 585:1 590:1 596:1 597:1 599:1 601:1 604:1 610:1 613:1 617:1 620:1 621:1 626:1 642:1 645:1 646:1 650:1 654:1 655:1 657:1 658:1 659:1 663:1 680:1 682:1 692:1 698:1 702:1 704:1 714:1 721:1 727:1 735:1 740:1 745:1 752:1 757:1 759:1 760:1 763:1 773:1 784:1 787:1 806:1 815:1 820:1 841:1 847:1 853:1 860:1 865:1 867:1 887:1 902:1 922:1 923:1 924:1 926:1 938:1 944:1 958:1 968:1 971:1 973:1 990:1 996:1 998:1 1003:1 1006:1 1026:1 1033:1 1037:1 1046:1 1049:1 1056:1 1062:1 1075:1 1085:1 1086:1 1090:1 1091:1 1095:1 1110:1 1113:1 1134:1 1137:1 1148:1 1154:1 1156:1 1170:1 1187:1 1193:1 1197:1 1207:1 1219:1 1228:1 1238:1 1260:1 1261:1 1265:1 1271:1 1285:1 1308:1 1319:1 1334:1 1336:1 1361:1 1366:1 1372:1 1378:1 1386:1 1406:1 1410:1 1432:1 1433:1 1446:1 1451:1 1456:1 1479:1 1485:1 1507:1 1553:1 1559:1 1568:1 1629:1 1631:1 1640:1 1656:1 1681:1 1685:1 1694:1 1696:1 1700:1 1729:1 1797:1 1799:1 1800:1 1860:1 1861:1 1885:1 1886:1 1923:1 1927:1 1934:1 2000:1 2002:1 2004:1 2006:1 2017:1 2026:1 2031:1 2051:1 2116:1 2132:1 2166:1 2204:1 2232:1 2277:1 2297:1 2351:1 2398:1 2403:1 2415:1 2417:1 2421:1 2427:1 2436:1 2452:1 2477:1 2501:1 2503:1 2507:1 2522:1 2548:1 2549:1 2570:1 2607:1 2622:1 2710:1 2786:1 2800:1 2802:1 2843:1 2851:1 2864:1 2865:1 2885:1 2900:1 2925:1 2960:1 2962:1 2996:1 3040:1 3091:1 3105:1 3114:1 3115:1 3227:1 3239:1 3268:1 3327:1 3349:1 3350:1 3387:1 3438:1 3465:1 3480:1 3537:1 3585:1 3597:1 3618:1 3670:1 3692:1 3695:1 3737:1 3739:1 3763:1 3767:1 3796:1 3824:1 3841:1 3865:1 3906:1 3968:1 3987:1 4106:1 4133:1 4134:1 4197:1 4228:1 4245:1 4258:1 4271:1 4339:1 4350:1 4491:1 4552:1 4564:1 4570:1 4630:1 4640:1 4685:1 4746:1 4749:1 4768:1 4800:1 4879:1 5294:1 5405:1 5601:1 5616:1 5618:1 5780:1 5781:1 5860:1 5885:1 5886:1 5933:1 5934:1 5935:1 5964:1 6007:1 6155:1 6215:1 6282:1 6317:1 6372:1 6503:1 6563:1 6628:1 6691:1 6736:1 6873:1 7012:1 7127:1 7202:1 7274:1 7353:1 7359:1 7490:1 7581:1 7590:1 7652:1 7834:1 7906:1 7954:1 8010:1 8039:1 8094:1 8147:1 8173:1 8174:1 8289:1 8428:1 8439:1 8566:1 8586:1 8611:1 8784:1 9219:1 9352:1 9434:1 9606:1 9816:1 9852:1 9983:1 10198:1 10322:1 10636:1 10719:1 10820:1 10924:1 10952:1 11135:1 11157:1 11368:1 11625:1 11663:1 11875:1 11910:1 11966:1 12297:1 12365:1 12676:1 12844:1 13019:1 13266:1 13402:1 13416:1 13633:1 13862:1 13968:1 14012:1 14425:1 14426:1 14427:1 14428:1 14429:1 14430:1 14431:1 #
-0.003154841018321794410966818489328 3:1 5:1 6:1 7:1 9:1 10:1 11:1 17:1 21:1 22:1 27:1 30:1 31:1 32:1 33:1 36:1 37:1 38:1 42:1 45:1 46:1 47:1 48:1 49:1 51:1 54:1 57:1 59:1 61:1 63:1 65:1 68:1 76:1 77:1 80:1 81:1 82:1 85:1 87:1 88:1 89:1 90:1 92:1 98:1 99:1 100:1 102:1 103:1 104:1 106:1 107:1 109:1 110:1 114:1 115:1 117:1 119:1 120:1 123:1 125:1 131:1 132:1 134:1 137:1 141:1 143:1 144:1 146:1 150:1 151:1 157:1 158:1 163:1 165:1 169:1 173:1 176:1 183:1 196:1 200:1 202:1 208:1 209:1 221:1 224:1 227:1 230:1 231:1 232:1 234:1 235:1 239:1 241:1 244:1 245:1 249:1 255:1 260:1 262:1 263:1 271:1 274:1 275:1 277:1 283:1 287:1 292:1 297:1 298:1 299:1 304:1 305:1 308:1 309:1 311:1 317:1 323:1 327:1 329:1 338:1 340:1 341:1 350:1 358:1 359:1 360:1 362:1 368:1 369:1 383:1 392:1 396:1 397:1 398:1 400:1 401:1 402:1 403:1 405:1 406:1 408:1 411:1 429:1 435:1 446:1 452:1 454:1 459:1 463:1 470:1 471:1 474:1 477:1 480:1 482:1 487:1 488:1 497:1 501:1 504:1 505:1 507:1 510:1 519:1 521:1 526:1 530:1 531:1 536:1 537:1 543:1 555:1 559:1 560:1 562:1 563:1 566:1 569:1 572:1 575:1 576:1 579:1 586:1 587:1 590:1 597:1 599:1 604:1 606:1 608:1 610:1 612:1 613:1 618:1 627:1 636:1 641:1 642:1 645:1 649:1 658:1 659:1 661:1 663:1 687:1 691:1 702:1 705:1 708:1 709:1 710:1 721:1 724:1 725:1 735:1 740:1 748:1 752:1 756:1 760:1 763:1 772:1 773:1 783:1 784:1 794:1 820:1 822:1 832:1 853:1 854:1 866:1 871:1 872:1 886:1 887:1 891:1 895:1 897:1 902:1 905:1 908:1 910:1 923:1 926:1 927:1 933:1 935:1 952:1 962:1 964:1 968:1 971:1 975:1 990:1 1003:1 1010:1 1018:1 1028:1 1051:1 1061:1 1062:1 1086:1 1090:1 1091:1 1092:1 1093:1 1095:1 1096:1 1106:1 1111:1 1125:1 1134:1 1139:1 1146:1 1149:1 1152:1 1158:1 1162:1 1164:1 1177:1 1182:1 1187:1 1191:1 1193:1 1199:1 1221:1 1223:1 1226:1 1227:1 1237:1 1260:1 1261:1 1265:1 1283:1 1285:1 1300:1 1302:1 1309:1 1310:1 1313:1 1324:1 1343:1 1352:1 1361:1 1370:1 1371:1 1372:1 1378:1 1391:1 1396:1 1397:1 1398:1 1399:1 1406:1 1410:1 1424:1 1432:1 1433:1 1438:1 1448:1 1462:1 1485:1 1486:1 1488:1 1493:1 1501:1 1516:1 1526:1 1534:1 1540:1 1547:1 1568:1 1589:1 1615:1 1627:1 1634:1 1635:1 1639:1 1641:1 1661:1 1662:1 1673:1 1681:1 1684:1 1696:1 1710:1 1713:1 1730:1 1736:1 1749:1 1758:1 1759:1 1777:1 1779:1 1811:1 1837:1 1844:1 1851:1 1852:1 1891:1 1907:1 1921:1 1933:1 1960:1 1997:1 2029:1 2091:1 2101:1 2124:1 2126:1 2157:1 2161:1 2166:1 2170:1 2187:1 2200:1 2204:1 2215:1 2226:1 2236:1 2247:1 2248:1 2263:1 2288:1 2294:1 2304:1 2309:1 2316:1 2323:1 2352:1 2353:1 2359:1 2367:1 2381:1 2394:1 2430:1 2435:1 2447:1 2448:1 2450:1 2452:1 2463:1 2474:1 2495:1 2511:1 2518:1 2530:1 2542:1 2550:1 2552:1 2570:1 2586:1 2587:1 2594:1 2599:1 2622:1 2639:1 2655:1 2668:1 2682:1 2689:1 2702:1 2710:1 2777:1 2781:1 2799:1 2802:1 2810:1 2821:1 2850:1 2891:1 2897:1 2921:1 2923:1 2927:1 2933:1 2942:1 2950:1 2962:1 3001:1 3051:1 3053:1 3088:1 3099:1 3105:1 3114:1 3115:1 3116:1 3120:1 3126:1 3151:1 3186:1 3187:1 3188:1 3189:1 3190:1 3196:1 3200:1 3269:1 3280:1 3294:1 3301:1 3310:1 3318:1 3324:1 3354:1 3376:1 3390:1 3403:1 3405:1 3408:1 3458:1 3462:1 3485:1 3545:1 3555:1 3558:1 3572:1 3574:1 3604:1 3633:1 3659:1 3674:1 3678:1 3684:1 3688:1 3719:1 3723:1 3742:1 3762:1 3791:1 3832:1 3858:1 3875:1 3908:1 3975:1 3979:1 3986:1 4023:1 4073:1 4091:1 4114:1 4121:1 4238:1 4255:1 4272:1 4334:1 4336:1 4353:1 4379:1 4387:1 4484:1 4589:1 4599:1 4614:1 4647:1 4676:1 4691:1 4744:1 4763:1 4783:1 4842:1 4927:1 4931:1 5000:1 5008:1 5014:1 5136:1 5310:1 5334:1 5344:1 5361:1 5366:1 5390:1 5450:1 5492:1 5526:1 5554:1 5582:1 5608:1 5631:1 5668:1 5703:1 5709:1 5729:1 5749:1 5768:1 5769:1 5770:1 5826:1 5945:1 5960:1 5972:1 6018:1 6038:1 6040:1 6080:1 6129:1 6131:1 6152:1 6222:1 6230:1 6233:1 6251:1 6301:1 6307:1 6344:1 6384:1 6401:1 6464:1 6479:1 6489:1 6500:1 6555:1 6624:1 6675:1 6734:1 6735:1 6771:1 6843:1 6873:1 6921:1 6944:1 6989:1 7120:1 7176:1 7181:1 7255:1 7449:1 7548:1 7592:1 7651:1 7666:1 7683:1 7811:1 7830:1 7945:1 8066:1 8299:1 8367:1 8455:1 8594:1 8598:1 8660:1 8682:1 8777:1 8786:1 8970:1 9063:1 9091:1 9123:1 9237:1 9280:1 9450:1 9578:1 9612:1 9630:1 9734:1 9770:1 10217:1 10357:1 10493:1 10591:1 10763:1 10862:1 11357:1 11436:1 11899:1 11938:1 12125:1 12151:1 12240:1 12270:1 12271:1 12431:1 12586:1 12600:1 12925:1 12993:1 12998:1 12999:1 13010:1 13111:1 13409:1 13498:1 13562:1 13645:1 14030:1 14112:1 14298:1 14861:1 14900:1 14901:1 #
0.003154841018321794410966818489328 3:1 9:1 11:1 22:1 27:1 33:1 37:1 38:1 42:1 45:1 48:1 51:1 61:1 65:1 68:1 80:1 82:1 85:1 88:1 100:1 107:1 109:1 183:1 221:1 226:1 250:1 262:1 271:1 283:1 369:1 389:1 395:1 402:1 470:1 477:1 498:1 501:1 507:1 567:1 613:1 697:1 709:1 735:1 794:1 795:1 853:1 1003:1 1006:1 1026:1 1090:1 1398:1 1436:1 1437:1 1615:1 1634:1 1642:1 1702:1 1821:1 1850:1 1972:1 1990:1 1991:1 2009:1 2195:1 2448:1 2803:1 2906:1 3106:1 3202:1 3263:1 3290:1 3558:1 3900:1 4292:1 4630:1 5038:1 5817:1 6259:1 7287:1 7415:1 9408:1 10332:1 10359:1 10360:1 10361:1 #
0.003154841018321794410966818489328 3:1 4:1 9:1 11:1 17:1 21:1 27:1 33:1 37:1 42:1 45:1 51:1 54:1 57:1 61:1 65:1 68:1 77:1 80:1 85:1 88:1 90:1 100:1 110:1 124:1 132:1 141:1 146:1 163:1 166:1 169:1 173:1 183:1 200:1 202:1 208:1 231:1 232:1 236:1 241:1 264:1 271:1 275:1 287:1 288:1 295:1 341:1 387:1 392:1 402:1 420:1 426:1 430:1 478:1 501:1 507:1 519:1 531:1 536:1 542:1 567:1 574:1 612:1 629:1 632:1 645:1 760:1 822:1 839:1 1004:1 1026:1 1070:1 1095:1 1096:1 1110:1 1113:1 1134:1 1147:1 1191:1 1243:1 1325:1 1375:1 1384:1 1432:1 1471:1 1489:1 1529:1 1596:1 1634:1 1639:1 1644:1 1645:1 1776:1 1789:1 1812:1 1850:1 2002:1 2057:1 2067:1 2103:1 2291:1 2491:1 2535:1 2802:1 2930:1 2994:1 3103:1 3324:1 3413:1 3488:1 3534:1 3849:1 4093:1 4244:1 4263:1 4297:1 4365:1 4430:1 4632:1 5197:1 5309:1 5316:1 5318:1 5362:1 5518:1 5857:1 5858:1 6094:1 6222:1 7359:1 7634:1 8111:1 8342:1 8495:1 8651:1 8698:1 9524:1 9601:1 9859:1 10879:1 11371:1 11556:1 11557:1 11558:1 #
0.003154841018321794410966818489328 9:1 11:1 15:1 17:1 21:1 23:1 27:1 28:1 35:1 37:1 42:1 45:1 51:1 57:1 58:1 59:1 61:1 63:1 65:1 68:1 77:1 80:1 100:1 109:1 110:1 120:1 132:1 146:1 183:1 188:1 208:1 255:1 258:1 263:1 266:1 287:1 288:1 300:1 327:1 341:1 369:1 390:1 397:1 402:1 429:1 463:1 467:1 477:1 507:1 521:1 536:1 572:1 579:1 631:1 642:1 689:1 705:1 833:1 839:1 922:1 977:1 1090:1 1263:1 1319:1 1372:1 1485:1 1491:1 1500:1 1669:1 1681:1 1716:1 1780:1 1797:1 1939:1 1960:1 2091:1 2470:1 2544:1 2668:1 2694:1 2709:1 2870:1 2871:1 2872:1 2942:1 2945:1 2965:1 3024:1 3025:1 3031:1 3073:1 3074:1 3140:1 3234:1 4150:1 4255:1 4261:1 4264:1 4284:1 4427:1 6296:1 6437:1 6495:1 7061:1 7151:1 7434:1 7789:1 8235:1 9159:1 9497:1 9651:1 9825:1 10215:1 10421:1 11908:1 12013:1 12585:1 12588:1 12783:1 12792:1 13751:1 13752:1 #
0.003154841018321794410966818489328 6:1 9:1 11:1 17:1 19:1 21:1 27:1 31:1 33:1 37:1 42:1 45:1 48:1 49:1 51:1 54:1 57:1 59:1 61:1 65:1 67:1 68:1 80:1 85:1 88:1 90:1 92:1 95:1 96:1 99:1 107:1 115:1 132:1 137:1 146:1 157:1 169:1 216:1 224:1 229:1 233:1 255:1 262:1 266:1 271:1 282:1 304:1 309:1 325:1 327:1 358:1 383:1 452:1 462:1 495:1 507:1 526:1 590:1 656:1 725:1 745:1 761:1 763:1 784:1 787:1 825:1 828:1 839:1 891:1 994:1 1001:1 1041:1 1095:1 1134:1 1137:1 1261:1 1333:1 1372:1 1391:1 1396:1 1415:1 1436:1 1525:1 1527:1 1696:1 1737:1 1751:1 1781:1 1789:1 1794:1 1821:1 1921:1 1952:1 2027:1 2166:1 2332:1 2367:1 2372:1 2463:1 2470:1 2521:1 2528:1 2582:1 2700:1 2739:1 2803:1 2903:1 3006:1 3098:1 3223:1 3254:1 3285:1 3286:1 3413:1 3449:1 3526:1 3956:1 3976:1 4140:1 4207:1 4231:1 4317:1 4608:1 4632:1 4706:1 5110:1 5152:1 5174:1 5175:1 5176:1 5177:1 5178:1 5179:1 5180:1 5181:1 5182:1 5183:1 5184:1 5185:1 5186:1 5187:1 5188:1 5189:1 5190:1 5191:1 5192:1 5193:1 5194:1 5195:1 5196:1 5197:1 5198:1 5199:1 #
0.003154841018321794410966818489328 2:1 9:1 11:1 17:1 21:1 27:1 31:1 33:1 37:1 42:1 45:1 48:1 51:1 54:1 57:1 59:1 61:1 63:1 65:1 68:1 80:1 85:1 88:1 95:1 100:1 101:1 109:1 129:1 130:1 144:1 146:1 166:1 169:1 171:1 176:1 200:1 208:1 221:1 231:1 236:1 249:1 257:1 258:1 266:1 274:1 287:1 317:1 344:1 358:1 362:1 365:1 369:1 389:1 400:1 431:1 444:1 468:1 471:1 478:1 501:1 504:1 507:1 515:1 521:1 563:1 587:1 590:1 626:1 678:1 742:1 746:1 777:1 820:1 855:1 905:1 910:1 912:1 922:1 968:1 978:1 1002:1 1024:1 1087:1 1103:1 1165:1 1177:1 1182:1 1184:1 1193:1 1199:1 1203:1 1261:1 1319:1 1374:1 1417:1 1443:1 1448:1 1482:1 1494:1 1546:1 1589:1 1633:1 1780:1 1851:1 1907:1 1927:1 1999:1 2073:1 2098:1 2112:1 2130:1 2131:1 2132:1 2133:1 2136:1 2137:1 2138:1 2139:1 2140:1 2141:1 2142:1 2148:1 2149:1 2151:1 2152:1 2153:1 2154:1 2158:1 2179:1 2181:1 2288:1 2323:1 2324:1 2326:1 2385:1 2541:1 2646:1 2786:1 2816:1 2824:1 2856:1 2871:1 2985:1 3134:1 3296:1 3387:1 3430:1 3451:1 3479:1 3534:1 3595:1 3621:1 3716:1 3917:1 4056:1 4067:1 4136:1 4145:1 4239:1 4339:1 4397:1 4413:1 4498:1 4508:1 4554:1 5059:1 5194:1 5198:1 5281:1 5396:1 5744:1 6178:1 6644:1 6919:1 7165:1 7483:1 7494:1 7663:1 8329:1 8330:1 8335:1 8337:1 8338:1 8339:1 8342:1 8343:1 8839:1 9366:1 9367:1 9381:1 9382:1 9594:1 10535:1 11585:1 12683:1 12777:1 #
-0.003154841018321794410966818489328 1:1 2:1 3:1 9:1 11:1 17:1 21:1 27:1 31:1 33:1 37:1 38:1 42:1 48:1 51:1 54:1 57:1 61:1 63:1 65:1 68:1 77:1 80:1 85:1 87:1 88:1 96:1 100:1 106:1 107:1 109:1 120:1 130:1 132:1 144:1 157:1 166:1 169:1 182:1 185:1 188:1 200:1 231:1 232:1 239:1 258:1 275:1 282:1 287:1 293:1 306:1 311:1 312:1 317:1 327:1 338:1 340:1 362:1 368:1 415:1 490:1 507:1 509:1 555:1 572:1 576:1 579:1 590:1 635:1 640:1 709:1 724:1 725:1 812:1 827:1 852:1 864:1 887:1 898:1 899:1 902:1 930:1 971:1 975:1 999:1 1018:1 1027:1 1061:1 1090:1 1103:1 1182:1 1187:1 1189:1 1313:1 1323:1 1372:1 1504:1 1596:1 1625:1 1669:1 1696:1 1737:1 1780:1 1851:1 1852:1 1941:1 1952:1 2091:1 2220:1 2263:1 2288:1 2387:1 2424:1 2488:1 2593:1 2646:1 2694:1 2760:1 2888:1 3032:1 3144:1 3308:1 3359:1 3404:1 3451:1 3705:1 3747:1 3883:1 3976:1 3998:1 4056:1 4195:1 4428:1 4429:1 4561:1 4578:1 4622:1 4642:1 4643:1 4887:1 5068:1 5162:1 5256:1 5353:1 5360:1 5381:1 5396:1 5488:1 5497:1 5772:1 5943:1 5944:1 6229:1 6372:1 6795:1 6873:1 7164:1 7177:1 7352:1 7417:1 7482:1 7603:1 7841:1 8149:1 8742:1 8900:1 9048:1 9257:1 9366:1 9381:1 9687:1 10750:1 10963:1 11954:1 12023:1 12087:1 12837:1 12887:1 13401:1 13686:1 13903:1 14050:1 14164:1 14170:1 14171:1 14172:1 14173:1 14174:1 14175:1 14176:1 14177:1 14178:1 14395:1 #
-0.003154841018321794410966818489328 3:1 9:1 11:1 13:1 14:1 15:1 17:1 21:1 27:1 31:1 33:1 37:1 42:1 45:1 51:1 65:1 68:1 76:1 80:1 89:1 90:1 122:1 132:1 134:1 137:1 169:1 173:1 217:1 231:1 275:1 277:1 298:1 360:1 403:1 563:1 587:1 590:1 612:1 626:1 644:1 664:1 735:1 853:1 887:1 897:1 912:1 922:1 1149:1 1178:1 1362:1 1467:1 1489:1 1696:1 1849:1 2153:1 2303:1 2689:1 3040:1 3190:1 3473:1 3917:1 4823:1 4896:1 4897:1 5095:1 5514:1 6557:1 6704:1 7545:1 8331:1 8404:1 8405:1 8729:1 9105:1 9184:1 10367:1 10368:1 12723:1 13259:1 13260:1 14845:1 #
-0.003154841018321794410966818489328 3:1 9:1 11:1 17:1 21:1 27:1 31:1 32:1 33:1 37:1 42:1 46:1 48:1 51:1 54:1 57:1 61:1 68:1 80:1 85:1 88:1 99:1 114:1 123:1 128:1 132:1 150:1 161:1 163:1 166:1 169:1 176:1 180:1 200:1 208:1 231:1 254:1 257:1 271:1 274:1 283:1 287:1 290:1 292:1 300:1 302:1 326:1 359:1 362:1 376:1 401:1 402:1 412:1 415:1 463:1 507:1 530:1 540:1 542:1 555:1 573:1 590:1 631:1 642:1 660:1 665:1 696:1 697:1 722:1 745:1 747:1 749:1 766:1 877:1 897:1 902:1 922:1 930:1 1026:1 1049:1 1059:1 1062:1 1113:1 1148:1 1165:1 1198:1 1201:1 1203:1 1226:1 1253:1 1265:1 1304:1 1348:1 1422:1 1489:1 1523:1 1524:1 1572:1 1696:1 1725:1 1751:1 1761:1 1783:1 1800:1 1855:1 1902:1 1915:1 1967:1 1974:1 2029:1 2445:1 2470:1 2471:1 2549:1 2589:1 2751:1 2830:1 2960:1 3141:1 3203:1 3207:1 3287:1 3389:1 3558:1 3660:1 3772:1 3909:1 3917:1 4067:1 4088:1 4179:1 4267:1 4509:1 4608:1 4630:1 4736:1 5068:1 5152:1 5270:1 5412:1 5488:1 5607:1 5624:1 5806:1 5831:1 5833:1 5915:1 6201:1 6442:1 6476:1 6633:1 6758:1 7304:1 7456:1 7557:1 7682:1 7696:1 7807:1 7947:1 8164:1 8200:1 8425:1 8482:1 8807:1 8812:1 8967:1 9078:1 9115:1 9116:1 9367:1 9822:1 10016:1 10206:1 10272:1 10295:1 10602:1 11060:1 11301:1 11593:1 11644:1 11669:1 12135:1 12244:1 12478:1 12574:1 12842:1 14696:1 #
-0.003154841018321794410966818489328 9:1 11:1 17:1 21:1 25:1 27:1 31:1 33:1 37:1 38:1 42:1 48:1 51:1 54:1 57:1 61:1 66:1 68:1 77:1 80:1 96:1 100:1 109:1 110:1 117:1 126:1 130:1 132:1 140:1 141:1 173:1 200:1 208:1 234:1 235:1 275:1 287:1 292:1 298:1 301:1 360:1 406:1 435:1 474:1 501:1 507:1 537:1 558:1 579:1 618:1 626:1 658:1 659:1 710:1 733:1 736:1 745:1 746:1 905:1 910:1 1029:1 1039:1 1090:1 1187:1 1229:1 1361:1 1437:1 1642:1 1681:1 1736:1 1754:1 1883:1 2039:1 2057:1 2307:1 2387:1 2541:1 2674:1 2868:1 2900:1 3202:1 3228:1 3533:1 3672:1 3868:1 3923:1 4131:1 4225:1 4310:1 4686:1 4687:1 4738:1 4864:1 5110:1 5142:1 5211:1 5316:1 5898:1 6371:1 6832:1 6849:1 7071:1 7582:1 7790:1 7879:1 8082:1 8160:1 8503:1 8727:1 9375:1 10072:1 11817:1 12736:1 12814:1 13580:1 13901:1 14093:1 14686:1 #
0.00055268581676811302100249534419163 3:1 6:1 7:1 9:1 10:1 11:1 13:1 14:1 15:1 17:1 21:1 22:1 27:1 30:1 31:1 32:1 33:1 34:1 35:1 36:1 37:1 38:1 42:1 43:1 45:1 46:1 47:1 48:1 51:1 53:1 54:1 55:1 57:1 58:1 59:1 61:1 65:1 66:1 67:1 68:1 70:1 74:1 76:1 77:1 80:1 81:1 83:1 85:1 88:1 89:1 90:1 91:1 92:1 95:1 96:1 97:1 99:1 100:1 102:1 103:1 105:1 106:1 107:1 109:1 110:1 111:1 113:1 114:1 115:1 117:1 118:1 119:1 120:1 130:1 132:1 134:1 137:1 140:1 141:1 143:1 144:1 146:1 150:1 151:1 153:1 157:1 160:1 163:1 165:1 166:1 169:1 173:1 175:1 176:1 179:1 180:1 182:1 183:1 185:1 200:1 202:1 204:1 208:1 214:1 221:1 224:1 226:1 227:1 229:1 231:1 232:1 234:1 235:1 236:1 237:1 239:1 255:1 259:1 260:1 261:1 262:1 263:1 265:1 268:1 271:1 274:1 275:1 279:1 282:1 285:1 287:1 290:1 292:1 296:1 297:1 298:1 300:1 301:1 304:1 305:1 308:1 310:1 311:1 312:1 316:1 317:1 325:1 326:1 327:1 328:1 329:1 330:1 334:1 338:1 341:1 343:1 347:1 358:1 359:1 360:1 362:1 364:1 369:1 383:1 385:1 386:1 388:1 389:1 393:1 395:1 396:1 397:1 400:1 401:1 402:1 403:1 407:1 412:1 413:1 429:1 432:1 434:1 445:1 446:1 458:1 459:1 463:1 468:1 470:1 471:1 474:1 477:1 478:1 480:1 482:1 487:1 488:1 490:1 491:1 495:1 498:1 501:1 505:1 507:1 510:1 519:1 526:1 527:1 531:1 536:1 537:1 542:1 548:1 553:1 554:1 555:1 558:1 562:1 563:1 566:1 568:1 569:1 571:1 572:1 573:1 574:1 575:1 576:1 579:1 585:1 586:1 590:1 591:1 594:1 599:1 604:1 608:1 610:1 612:1 613:1 619:1 621:1 626:1 631:1 644:1 645:1 646:1 656:1 658:1 659:1 667:1 681:1 687:1 688:1 690:1 692:1 696:1 699:1 702:1 708:1 710:1 717:1 721:1 727:1 728:1 730:1 731:1 733:1 735:1 737:1 752:1 753:1 754:1 756:1 761:1 763:1 772:1 773:1 775:1 777:1 783:1 784:1 797:1 798:1 800:1 803:1 805:1 807:1 813:1 820:1 822:1 830:1 832:1 833:1 838:1 839:1 840:1 847:1 860:1 863:1 865:1 869:1 871:1 872:1 885:1 887:1 890:1 898:1 902:1 908:1 911:1 912:1 922:1 931:1 932:1 944:1 955:1 958:1 968:1 971:1 976:1 990:1 994:1 996:1 998:1 1003:1 1011:1 1012:1 1026:1 1028:1 1029:1 1033:1 1041:1 1046:1 1047:1 1056:1 1061:1 1063:1 1070:1 1077:1 1086:1 1090:1 1094:1 1095:1 1099:1 1105:1 1116:1 1132:1 1134:1 1139:1 1140:1 1144:1 1149:1 1153:1 1177:1 1187:1 1189:1 1198:1 1199:1 1218:1 1226:1 1236:1 1242:1 1243:1 1245:1 1252:1 1260:1 1261:1 1265:1 1272:1 1278:1 1281:1 1287:1 1288:1 1299:1 1304:1 1319:1 1326:1 1348:1 1352:1 1369:1 1370:1 1374:1 1378:1 1390:1 1396:1 1398:1 1401:1 1406:1 1407:1 1410:1 1448:1 1452:1 1458:1 1467:1 1480:1 1482:1 1485:1 1493:1 1507:1 1513:1 1524:1 1526:1 1540:1 1547:1 1559:1 1566:1 1570:1 1572:1 1602:1 1608:1 1635:1 1636:1 1676:1 1681:1 1684:1 1690:1 1692:1 1704:1 1710:1 1714:1 1717:1 1729:1 1730:1 1732:1 1749:1 1759:1 1766:1 1780:1 1789:1 1794:1 1803:1 1804:1 1840:1 1843:1 1847:1 1855:1 1918:1 1919:1 1921:1 1933:1 1960:1 1969:1 1970:1 1989:1 1992:1 1998:1 2000:1 2001:1 2006:1 2017:1 2037:1 2039:1 2044:1 2047:1 2062:1 2064:1 2084:1 2097:1 2099:1 2123:1 2126:1 2153:1 2154:1 2155:1 2166:1 2205:1 2214:1 2219:1 2224:1 2230:1 2241:1 2245:1 2247:1 2252:1 2262:1 2291:1 2308:1 2320:1 2327:1 2374:1 2386:1 2398:1 2403:1 2407:1 2408:1 2411:1 2435:1 2436:1 2448:1 2458:1 2524:1 2528:1 2539:1 2542:1 2549:1 2552:1 2559:1 2576:1 2597:1 2621:1 2643:1 2655:1 2681:1 2689:1 2702:1 2724:1 2777:1 2781:1 2790:1 2798:1 2804:1 2810:1 2834:1 2837:1 2843:1 2864:1 2923:1 2927:1 2988:1 2993:1 3050:1 3059:1 3063:1 3096:1 3098:1 3101:1 3110:1 3112:1 3132:1 3140:1 3147:1 3151:1 3162:1 3173:1 3200:1 3274:1 3281:1 3283:1 3287:1 3288:1 3309:1 3327:1 3349:1 3369:1 3382:1 3426:1 3464:1 3465:1 3495:1 3558:1 3581:1 3609:1 3625:1 3634:1 3635:1 3672:1 3702:1 3726:1 3739:1 3766:1 3780:1 3790:1 3814:1 3881:1 3883:1 3915:1 3917:1 3982:1 3986:1 4099:1 4121:1 4140:1 4222:1 4241:1 4244:1 4259:1 4271:1 4291:1 4298:1 4311:1 4336:1 4339:1 4348:1 4498:1 4503:1 4530:1 4531:1 4560:1 4575:1 4577:1 4578:1 4582:1 4608:1 4647:1 4675:1 4676:1 4686:1 4772:1 4775:1 4780:1 4792:1 4818:1 4872:1 4892:1 4900:1 4985:1 5138:1 5180:1 5194:1 5201:1 5207:1 5210:1 5220:1 5223:1 5265:1 5336:1 5340:1 5381:1 5394:1 5550:1 5594:1 5618:1 5650:1 5667:1 5672:1 5673:1 5681:1 5738:1 5761:1 5768:1 5791:1 5834:1 5919:1 5949:1 5996:1 6037:1 6064:1 6066:1 6104:1 6169:1 6224:1 6252:1 6273:1 6284:1 6342:1 6344:1 6454:1 6464:1 6513:1 6561:1 6610:1 6659:1 6714:1 6738:1 6816:1 6817:1 6880:1 6894:1 6979:1 7049:1 7055:1 7056:1 7210:1 7358:1 7613:1 7644:1 7817:1 7837:1 7846:1 7863:1 7868:1 7895:1 7991:1 8019:1 8036:1 8239:1 8267:1 8308:1 8327:1 8619:1 8850:1 8867:1 8947:1 9047:1 9169:1 9349:1 9460:1 9507:1 9547:1 9612:1 9639:1 9934:1 10010:1 10264:1 10322:1 10347:1 10688:1 10725:1 10726:1 10728:1 10799:1 10802:1 10804:1 10808:1 10854:1 10979:1 11183:1 11401:1 11428:1 11491:1 11497:1 11506:1 11562:1 11607:1 11686:1 11767:1 11792:1 12042:1 12604:1 12926:1 12927:1 12928:1 12929:1 12930:1 12931:1 12932:1 12933:1 12934:1 12935:1 12936:1 12937:1 #
0.0020555185871797628134605151473124 3:1 6:1 9:1 11:1 13:1 15:1 17:1 21:1 22:1 25:1 27:1 31:1 33:1 34:1 35:1 36:1 37:1 38:1 40:1 42:1 43:1 45:1 46:1 47:1 48:1 51:1 54:1 57:1 60:1 61:1 65:1 66:1 68:1 70:1 76:1 77:1 78:1 80:1 81:1 82:1 83:1 85:1 88:1 89:1 90:1 91:1 92:1 96:1 99:1 100:1 102:1 103:1 106:1 107:1 108:1 109:1 110:1 111:1 114:1 115:1 117:1 119:1 120:1 123:1 130:1 132:1 134:1 137:1 140:1 141:1 143:1 150:1 153:1 155:1 157:1 159:1 163:1 166:1 169:1 173:1 176:1 180:1 182:1 185:1 199:1 200:1 206:1 208:1 221:1 224:1 226:1 227:1 229:1 231:1 232:1 233:1 235:1 245:1 255:1 258:1 262:1 265:1 268:1 270:1 271:1 275:1 277:1 282:1 283:1 287:1 288:1 290:1 292:1 298:1 300:1 301:1 302:1 305:1 309:1 310:1 311:1 316:1 317:1 327:1 329:1 341:1 347:1 348:1 350:1 360:1 362:1 368:1 369:1 385:1 388:1 389:1 390:1 397:1 400:1 401:1 402:1 403:1 404:1 412:1 413:1 429:1 432:1 435:1 459:1 460:1 462:1 463:1 465:1 468:1 470:1 474:1 477:1 478:1 480:1 482:1 491:1 497:1 501:1 507:1 518:1 519:1 521:1 530:1 531:1 532:1 533:1 536:1 538:1 542:1 545:1 551:1 555:1 558:1 563:1 568:1 569:1 570:1 571:1 572:1 575:1 579:1 587:1 589:1 590:1 595:1 596:1 597:1 599:1 607:1 610:1 614:1 616:1 621:1 626:1 631:1 632:1 642:1 644:1 646:1 656:1 658:1 659:1 660:1 664:1 669:1 678:1 680:1 681:1 682:1 686:1 688:1 692:1 697:1 701:1 702:1 721:1 725:1 752:1 756:1 760:1 763:1 766:1 773:1 797:1 820:1 832:1 838:1 839:1 841:1 842:1 852:1 865:1 871:1 872:1 886:1 891:1 893:1 895:1 908:1 910:1 912:1 919:1 921:1 922:1 926:1 930:1 933:1 936:1 938:1 958:1 960:1 962:1 968:1 971:1 973:1 974:1 975:1 976:1 977:1 983:1 990:1 996:1 1010:1 1015:1 1026:1 1028:1 1029:1 1033:1 1071:1 1090:1 1091:1 1095:1 1107:1 1110:1 1114:1 1131:1 1134:1 1164:1 1168:1 1177:1 1178:1 1187:1 1189:1 1198:1 1223:1 1226:1 1235:1 1260:1 1278:1 1301:1 1330:1 1338:1 1342:1 1344:1 1347:1 1348:1 1378:1 1384:1 1386:1 1399:1 1407:1 1410:1 1417:1 1422:1 1432:1 1443:1 1445:1 1448:1 1451:1 1455:1 1486:1 1499:1 1501:1 1516:1 1526:1 1533:1 1534:1 1540:1 1547:1 1556:1 1573:1 1613:1 1629:1 1642:1 1644:1 1651:1 1681:1 1694:1 1730:1 1731:1 1749:1 1755:1 1766:1 1768:1 1775:1 1779:1 1797:1 1799:1 1800:1 1817:1 1819:1 1858:1 1868:1 1895:1 1907:1 1933:1 1960:1 1992:1 2000:1 2008:1 2030:1 2031:1 2062:1 2063:1 2091:1 2099:1 2122:1 2166:1 2200:1 2219:1 2228:1 2245:1 2247:1 2287:1 2294:1 2309:1 2312:1 2346:1 2353:1 2374:1 2403:1 2407:1 2415:1 2427:1 2436:1 2459:1 2460:1 2470:1 2490:1 2498:1 2520:1 2524:1 2545:1 2567:1 2633:1 2658:1 2682:1 2777:1 2790:1 2804:1 2810:1 2816:1 2826:1 2832:1 2834:1 2860:1 2901:1 2927:1 2944:1 2964:1 2965:1 2983:1 2996:1 3019:1 3044:1 3162:1 3189:1 3294:1 3327:1 3349:1 3418:1 3456:1 3465:1 3490:1 3494:1 3517:1 3525:1 3581:1 3633:1 3634:1 3673:1 3690:1 3716:1 3764:1 3799:1 3812:1 3825:1 3833:1 3892:1 3930:1 4001:1 4015:1 4221:1 4232:1 4240:1 4251:1 4301:1 4346:1 4496:1 4520:1 4610:1 4744:1 4776:1 4788:1 4809:1 4931:1 4941:1 4985:1 5096:1 5169:1 5346:1 5360:1 5378:1 5380:1 5391:1 5550:1 5582:1 5650:1 5684:1 5761:1 6037:1 6106:1 6212:1 6236:1 6260:1 6271:1 6300:1 6302:1 6329:1 6407:1 6561:1 6620:1 7057:1 7318:1 7347:1 7359:1 7370:1 7372:1 7499:1 7505:1 7551:1 7578:1 7704:1 7765:1 7830:1 8008:1 8034:1 8136:1 8257:1 8266:1 8276:1 8379:1 8384:1 8485:1 8661:1 8832:1 8999:1 9066:1 9260:1 9298:1 9412:1 10301:1 10382:1 10383:1 10491:1 10587:1 10606:1 10763:1 10967:1 11804:1 11871:1 11918:1 11977:1 12016:1 12216:1 12621:1 12822:1 13435:1 13647:1 13649:1 13650:1 14050:1 14129:1 14130:1 14131:1 14132:1 #
-0.0010860509713958254023741245575252 2:1 3:1 6:1 7:1 9:1 11:1 13:1 15:1 17:1 21:1 22:1 27:1 31:1 33:1 34:1 35:1 36:1 37:1 42:1 45:1 46:1 48:1 51:1 54:1 55:1 57:1 59:1 60:1 61:1 65:1 68:1 70:1 76:1 77:1 80:1 89:1 90:1 91:1 99:1 100:1 106:1 107:1 109:1 110:1 113:1 114:1 115:1 117:1 118:1 123:1 132:1 134:1 137:1 140:1 143:1 148:1 150:1 157:1 165:1 168:1 169:1 173:1 175:1 176:1 200:1 202:1 208:1 216:1 226:1 227:1 231:1 232:1 234:1 237:1 240:1 262:1 264:1 271:1 275:1 277:1 287:1 292:1 298:1 301:1 305:1 311:1 316:1 317:1 327:1 345:1 362:1 384:1 386:1 388:1 390:1 395:1 397:1 402:1 403:1 454:1 466:1 470:1 481:1 498:1 532:1 533:1 536:1 537:1 558:1 572:1 575:1 585:1 596:1 599:1 604:1 626:1 636:1 642:1 645:1 646:1 654:1 655:1 721:1 740:1 751:1 752:1 769:1 785:1 854:1 859:1 876:1 878:1 896:1 911:1 912:1 936:1 965:1 973:1 977:1 1027:1 1029:1 1095:1 1111:1 1178:1 1187:1 1226:1 1233:1 1260:1 1283:1 1336:1 1370:1 1372:1 1406:1 1407:1 1415:1 1432:1 1489:1 1501:1 1568:1 1615:1 1645:1 1650:1 1661:1 1681:1 1696:1 1729:1 1755:1 1789:1 1807:1 1811:1 1907:1 1933:1 1937:1 2000:1 2003:1 2031:1 2050:1 2098:1 2099:1 2122:1 2257:1 2258:1 2276:1 2309:1 2435:1 2484:1 2615:1 2652:1 2662:1 2678:1 2696:1 2777:1 2815:1 2858:1 2921:1 2928:1 2964:1 3162:1 3239:1 3240:1 3241:1 3248:1 3249:1 3254:1 3465:1 3475:1 3558:1 3622:1 3865:1 3900:1 3986:1 4312:1 4326:1 4348:1 4398:1 4509:1 4738:1 4768:1 4858:1 4875:1 5025:1 5640:1 5923:1 5960:1 6021:1 6050:1 6472:1 6863:1 6991:1 7392:1 7914:1 8400:1 9479:1 9800:1 9879:1 10260:1 10795:1 11280:1 12385:1 12847:1 13455:1 14183:1 #
